
    // !!! This file is generated using emlearn !!!

    #include <eml_trees.h>
    

EmlTreesNode extra_tree_postural_sway_450_nodes[206] = {
  { 489, -0.009167987692763946, 1, 13 },
  { 254, -0.057698589349907015, 2, 8 },
  { 789, -0.04966620414106593, 3, 6 },
  { 522, 0.07453412567900454, 4, 5 },
  { -1, 2, -1, -1 },
  { -1, 3, -1, -1 },
  { 771, -0.025720626020269657, 7, 5 },
  { 537, 0.0793467682008838, 5, 4 },
  { 52, 0.14386003014313148, 9, 5 },
  { 288, 0.11672333152473546, 10, 5 },
  { 273, 0.1104824113700989, 11, 5 },
  { 250, 0.2927557398697362, 12, 5 },
  { 323, 0.06701248124831177, 4, 4 },
  { 700, 0.05037977963776416, 14, 39 },
  { 658, 0.04434748640947905, 15, 36 },
  { 371, 0.14701199109226343, 16, 34 },
  { 370, -0.0278211039215997, 17, 19 },
  { 812, 0.09539778727717145, 18, 5 },
  { -1, 1, -1, -1 },
  { 695, -0.012674509699654668, 20, 24 },
  { 127, 0.14129169063816532, 21, 5 },
  { 617, 0.04797704272408093, 22, 4 },
  { 84, 0.046833691971674536, 23, 4 },
  { -1, 0, -1, -1 },
  { 13, 0.15992697956513136, 25, 18 },
  { 145, -0.03553439540646636, 18, 26 },
  { 267, 0.13768818665637078, 27, 18 },
  { 403, -0.05961865076036249, 18, 28 },
  { 344, -0.002983964852551535, 29, 30 },
  { 334, -0.047595872930355484, 18, 23 },
  { 115, 0.1632991441385903, 31, 18 },
  { 668, -0.01782205978227301, 4, 32 },
  { 128, 0.18192617989064758, 33, 18 },
  { 293, 0.16127612411831277, 23, 18 },
  { 723, -0.021449681591285505, 5, 35 },
  { 747, 0.08702396551781688, 18, 5 },
  { 330, -0.08422560240286392, 5, 37 },
  { 190, 0.22886462802845586, 38, 5 },
  { 407, -0.09717684424080791, 5, 4 },
  { 297, 0.056826197059885175, 40, 41 },
  { 340, 0.142862968298544, 4, 5 },
  { 266, -0.10108917954306113, 5, 42 },
  { 267, 0.09306444347333194, 4, 5 },
  { 763, 0.04099069662625082, 44, 74 },
  { 871, -0.014678023546419422, 45, 50 },
  { 69, -0.2539245118096607, 5, 46 },
  { 386, -0.18486468682422025, 5, 47 },
  { 388, 0.04207226538571496, 48, 49 },
  { 89, -0.16452742578893118, 5, 4 },
  { 637, -0.13585260138354874, 4, 5 },
  { 719, 0.06986612526568853, 51, 70 },
  { 29, 0.12619595400102368, 52, 66 },
  { 1, -0.022574837838973627, 53, 56 },
  { 647, -0.012980929877779768, 54, 55 },
  { 550, -0.09673778966864055, 4, 5 },
  { 823, 0.05549765289657301, 18, 4 },
  { 63, -0.020885949428221307, 57, 60 },
  { 883, 0.07222609517503624, 58, 59 },
  { 544, 0.004937743878954169, 23, 18 },
  { 656, -0.06047785188107287, 4, 5 },
  { 314, 0.18097574544966666, 61, 65 },
  { 182, 0.12018308527277677, 62, 18 },
  { 784, -0.039699797620859054, 63, 64 },
  { 225, 0.27145322544968553, 4, 5 },
  { 529, 0.13710470085272383, 23, 5 },
  { 35, -0.13466077655465808, 5, 18 },
  { 730, -0.02560660578285856, 5, 67 },
  { 463, -0.06816761978992514, 5, 68 },
  { 608, -0.013062476283260516, 5, 69 },
  { 580, 0.03127017205448307, 18, 23 },
  { 133, -0.06952246276259083, 5, 71 },
  { 180, -0.2048601988147733, 5, 72 },
  { 309, 0.11872864374125264, 73, 5 },
  { 301, -0.13057876603753177, 5, 4 },
  { 393, 0.07780131551375125, 75, 5 },
  { 440, 0.1621153558276302, 76, 5 },
  { 287, 0.0767670709637851, 77, 79 },
  { 62, 0.14822733359252743, 78, 5 },
  { 228, 0.25290537693204956, 4, 5 },
  { 802, 0.05394687925836747, 5, 4 },
  { 716, 0.05727472047293142, 81, 117 },
  { 704, -0.02139834393741774, 82, 89 },
  { 11, 0.07496677916056288, 83, 87 },
  { 232, -0.11298403363629828, 5, 84 },
  { 290, 0.18720942888023234, 85, 5 },
  { 351, -0.15348119181449266, 5, 86 },
  { 412, 0.09480553707916511, 4, 5 },
  { 643, 0.09100105745580583, 5, 88 },
  { 253, -0.018263471990305008, 5, 4 },
  { 577, 0.05548808081436779, 90, 114 },
  { 323, -0.04284611001756711, 91, 93 },
  { 737, -0.012367644260838737, 5, 92 },
  { 817, -0.04610585136286566, 5, 18 },
  { 419, -0.005745820275338875, 94, 100 },
  { 724, -0.04741206702425457, 95, 96 },
  { 551, -0.1037187987973483, 4, 5 },
  { 827, -0.004189801382090783, 97, 98 },
  { 135, 0.22261401478806483, 4, 5 },
  { 331, 0.06242013238250663, 99, 18 },
  { 239, 0.1874339477451288, 23, 18 },
  { 385, -0.08387242873272366, 101, 103 },
  { 832, 0.05725852017315562, 102, 5 },
  { 536, 0.10031231361729218, 18, 5 },
  { 680, 0.044942556550044074, 104, 113 },
  { 96, -0.03927515584175745, 18, 105 },
  { 24, 0.11056565659364148, 106, 112 },
  { 112, 0.13588820438518218, 107, 18 },
  { 562, -0.0542038373086419, 4, 108 },
  { 754, -0.031271268320730204, 4, 109 },
  { 857, -0.037436642189521266, 4, 110 },
  { 348, 0.09758821517154422, 23, 111 },
  { 271, 0.06655960234454335, 18, 23 },
  { 586, 0.020285559440289907, 18, 23 },
  { 273, 0.1478467696538886, 4, 5 },
  { 620, -0.04726983793286943, 115, 116 },
  { 228, 0.016628675729757805, 4, 5 },
  { 861, -0.03677397807633244, 4, 5 },
  { 346, 0.09478476967969807, 118, 5 },
  { 192, -0.18879904399225012, 5, 119 },
  { 444, -0.1727663769813101, 5, 120 },
  { 98, -0.08872233180277844, 5, 121 },
  { 324, 0.1603637097951349, 4, 5 },
  { 647, -0.015144705995999097, 123, 129 },
  { 155, 0.1443498486772401, 124, 5 },
  { 331, 0.12111191357997975, 125, 5 },
  { 19, -0.11799457161431659, 126, 127 },
  { 18, -0.2297499906101925, 5, 4 },
  { 422, -0.2000255196716364, 5, 128 },
  { 293, 0.22465023413189883, 4, 5 },
  { 540, 0.03756256052469903, 130, 154 },
  { 665, 0.05644402010742958, 131, 151 },
  { 311, 0.18796506186388973, 132, 150 },
  { 696, -0.02657785111004518, 133, 135 },
  { 274, 0.10344462436026283, 134, 5 },
  { 361, 0.6038574106026129, 4, 5 },
  { 185, 0.10590695751975632, 136, 146 },
  { 33, -0.008612636142169311, 137, 140 },
  { 655, -0.005382433526090279, 23, 138 },
  { 119, 0.05808615616874821, 139, 18 },
  { 624, 0.018253182125548533, 18, 23 },
  { 156, -0.030658526378139372, 141, 142 },
  { 881, -0.030783125798663893, 5, 18 },
  { 376, 0.11172874965033167, 143, 18 },
  { 85, -0.04172930860890514, 18, 144 },
  { 891, 0.05098834540138406, 145, 4 },
  { 869, -0.022453434313702173, 4, 23 },
  { 699, 0.08427724317981311, 147, 5 },
  { 519, -0.0691096402415235, 5, 148 },
  { 108, -0.019239927187292227, 18, 149 },
  { 489, 0.0246876646629617, 18, 23 },
  { 611, -0.036220002070892335, 5, 18 },
  { 391, 0.15134852134161503, 152, 5 },
  { 198, 0.18905115690059432, 153, 5 },
  { 175, 0.37388230366002867, 4, 5 },
  { 62, 0.32160651119232286, 155, 5 },
  { 174, 0.19438634487402395, 156, 5 },
  { 377, 0.1424289974582229, 157, 159 },
  { 397, 0.11146211353955293, 158, 5 },
  { 112, 0.23190304295831704, 4, 5 },
  { 274, 0.1220078753487426, 160, 5 },
  { 404, -0.15968951550093585, 5, 18 },
  { 549, -0.011259720162476894, 162, 169 },
  { 421, 0.23693951306741634, 163, 5 },
  { 272, 0.07206716395635893, 164, 167 },
  { 238, 0.11653236958372107, 165, 5 },
  { 381, 0.08123616602562131, 166, 5 },
  { 185, 0.19926763832931965, 4, 5 },
  { 721, -0.11942225304392552, 168, 5 },
  { 494, 0.13325934911446735, 5, 4 },
  { 558, 0.031964229792436794, 170, 192 },
  { 307, 0.1818709757174669, 171, 189 },
  { 363, 0.11797055850443616, 172, 185 },
  { 351, -0.011914583631904785, 173, 176 },
  { 443, 0.05759704811345895, 174, 18 },
  { 367, -0.36122612818747607, 5, 175 },
  { 581, -0.03457480313468511, 4, 18 },
  { 586, -0.01649593961232093, 177, 178 },
  { 288, 0.12009898674498834, 4, 5 },
  { 394, -0.09738476015223543, 18, 179 },
  { 236, -0.0011332839646835124, 180, 181 },
  { 738, -0.01598031340913296, 4, 18 },
  { 140, -0.06737305942383856, 18, 182 },
  { 874, -0.011012858236554027, 4, 183 },
  { 155, 0.1486935957466775, 184, 18 },
  { 439, -0.051940550984261286, 18, 23 },
  { 867, 0.051141962772188854, 186, 5 },
  { 824, 0.04021322615243371, 187, 5 },
  { 294, 0.07008526837530238, 18, 188 },
  { 657, 0.023213059653077787, 18, 23 },
  { 536, 0.08129912710917847, 190, 5 },
  { 822, -0.019352015529300215, 5, 191 },
  { 39, -0.17839610090728414, 5, 18 },
  { 632, -0.05625129997714237, 193, 197 },
  { 236, 0.3256101060966654, 194, 5 },
  { 215, -0.21005978801316028, 5, 195 },
  { 445, 0.22006361211619352, 196, 5 },
  { 257, 0.3289816643650264, 4, 5 },
  { 608, 0.01340410584221996, 198, 202 },
  { 185, 0.2772318269078291, 199, 5 },
  { 375, -0.05936092995480008, 5, 200 },
  { 607, -0.08104217729265023, 4, 201 },
  { 803, 0.05059294075483298, 5, 4 },
  { 636, 0.06601344268036434, 203, 205 },
  { 562, 0.06803649470071468, 204, 5 },
  { 160, 0.07413963271105342, 18, 23 },
  { 117, -0.1043331057932087, 5, 4 } 
};

int32_t extra_tree_postural_sway_450_tree_roots[5] = { 0, 43, 80, 122, 161 };

EmlTrees extra_tree_postural_sway_450 = {
        206,
        extra_tree_postural_sway_450_nodes,	  
        5,
        extra_tree_postural_sway_450_tree_roots,
    };

static inline int32_t extra_tree_postural_sway_450_predict_tree_0(const float *features, int32_t features_length) {
          if (features[489] < -0.009167987692763946) {
              if (features[254] < -0.057698589349907015) {
                  if (features[789] < -0.04966620414106593) {
                      if (features[522] < 0.07453412567900454) {
                          return 2;
                      } else {
                          return 3;
                      }
                  } else {
                      if (features[771] < -0.025720626020269657) {
                          if (features[537] < 0.0793467682008838) {
                              return 3;
                          } else {
                              return 2;
                          }
                      } else {
                          return 3;
                      }
                  }
              } else {
                  if (features[52] < 0.14386003014313148) {
                      if (features[288] < 0.11672333152473546) {
                          if (features[273] < 0.1104824113700989) {
                              if (features[250] < 0.2927557398697362) {
                                  if (features[323] < 0.06701248124831177) {
                                      return 2;
                                  } else {
                                      return 2;
                                  }
                              } else {
                                  return 3;
                              }
                          } else {
                              return 3;
                          }
                      } else {
                          return 3;
                      }
                  } else {
                      return 3;
                  }
              }
          } else {
              if (features[700] < 0.05037977963776416) {
                  if (features[658] < 0.04434748640947905) {
                      if (features[371] < 0.14701199109226343) {
                          if (features[370] < -0.0278211039215997) {
                              if (features[812] < 0.09539778727717145) {
                                  return 1;
                              } else {
                                  return 3;
                              }
                          } else {
                              if (features[695] < -0.012674509699654668) {
                                  if (features[127] < 0.14129169063816532) {
                                      if (features[617] < 0.04797704272408093) {
                                          if (features[84] < 0.046833691971674536) {
                                              return 0;
                                          } else {
                                              return 2;
                                          }
                                      } else {
                                          return 2;
                                      }
                                  } else {
                                      return 3;
                                  }
                              } else {
                                  if (features[13] < 0.15992697956513136) {
                                      if (features[145] < -0.03553439540646636) {
                                          return 1;
                                      } else {
                                          if (features[267] < 0.13768818665637078) {
                                              if (features[403] < -0.05961865076036249) {
                                                  return 1;
                                              } else {
                                                  if (features[344] < -0.002983964852551535) {
                                                      if (features[334] < -0.047595872930355484) {
                                                          return 1;
                                                      } else {
                                                          return 0;
                                                      }
                                                  } else {
                                                      if (features[115] < 0.1632991441385903) {
                                                          if (features[668] < -0.01782205978227301) {
                                                              return 2;
                                                          } else {
                                                              if (features[128] < 0.18192617989064758) {
                                                                  if (features[293] < 0.16127612411831277) {
                                                                      return 0;
                                                                  } else {
                                                                      return 1;
                                                                  }
                                                              } else {
                                                                  return 1;
                                                              }
                                                          }
                                                      } else {
                                                          return 1;
                                                      }
                                                  }
                                              }
                                          } else {
                                              return 1;
                                          }
                                      }
                                  } else {
                                      return 1;
                                  }
                              }
                          }
                      } else {
                          if (features[723] < -0.021449681591285505) {
                              return 3;
                          } else {
                              if (features[747] < 0.08702396551781688) {
                                  return 1;
                              } else {
                                  return 3;
                              }
                          }
                      }
                  } else {
                      if (features[330] < -0.08422560240286392) {
                          return 3;
                      } else {
                          if (features[190] < 0.22886462802845586) {
                              if (features[407] < -0.09717684424080791) {
                                  return 3;
                              } else {
                                  return 2;
                              }
                          } else {
                              return 3;
                          }
                      }
                  }
              } else {
                  if (features[297] < 0.056826197059885175) {
                      if (features[340] < 0.142862968298544) {
                          return 2;
                      } else {
                          return 3;
                      }
                  } else {
                      if (features[266] < -0.10108917954306113) {
                          return 3;
                      } else {
                          if (features[267] < 0.09306444347333194) {
                              return 2;
                          } else {
                              return 3;
                          }
                      }
                  }
              }
          }
        }
        

static inline int32_t extra_tree_postural_sway_450_predict_tree_1(const float *features, int32_t features_length) {
          if (features[763] < 0.04099069662625082) {
              if (features[871] < -0.014678023546419422) {
                  if (features[69] < -0.2539245118096607) {
                      return 3;
                  } else {
                      if (features[386] < -0.18486468682422025) {
                          return 3;
                      } else {
                          if (features[388] < 0.04207226538571496) {
                              if (features[89] < -0.16452742578893118) {
                                  return 3;
                              } else {
                                  return 2;
                              }
                          } else {
                              if (features[637] < -0.13585260138354874) {
                                  return 2;
                              } else {
                                  return 3;
                              }
                          }
                      }
                  }
              } else {
                  if (features[719] < 0.06986612526568853) {
                      if (features[29] < 0.12619595400102368) {
                          if (features[1] < -0.022574837838973627) {
                              if (features[647] < -0.012980929877779768) {
                                  if (features[550] < -0.09673778966864055) {
                                      return 2;
                                  } else {
                                      return 3;
                                  }
                              } else {
                                  if (features[823] < 0.05549765289657301) {
                                      return 1;
                                  } else {
                                      return 2;
                                  }
                              }
                          } else {
                              if (features[63] < -0.020885949428221307) {
                                  if (features[883] < 0.07222609517503624) {
                                      if (features[544] < 0.004937743878954169) {
                                          return 0;
                                      } else {
                                          return 1;
                                      }
                                  } else {
                                      if (features[656] < -0.06047785188107287) {
                                          return 2;
                                      } else {
                                          return 3;
                                      }
                                  }
                              } else {
                                  if (features[314] < 0.18097574544966666) {
                                      if (features[182] < 0.12018308527277677) {
                                          if (features[784] < -0.039699797620859054) {
                                              if (features[225] < 0.27145322544968553) {
                                                  return 2;
                                              } else {
                                                  return 3;
                                              }
                                          } else {
                                              if (features[529] < 0.13710470085272383) {
                                                  return 0;
                                              } else {
                                                  return 3;
                                              }
                                          }
                                      } else {
                                          return 1;
                                      }
                                  } else {
                                      if (features[35] < -0.13466077655465808) {
                                          return 3;
                                      } else {
                                          return 1;
                                      }
                                  }
                              }
                          }
                      } else {
                          if (features[730] < -0.02560660578285856) {
                              return 3;
                          } else {
                              if (features[463] < -0.06816761978992514) {
                                  return 3;
                              } else {
                                  if (features[608] < -0.013062476283260516) {
                                      return 3;
                                  } else {
                                      if (features[580] < 0.03127017205448307) {
                                          return 1;
                                      } else {
                                          return 0;
                                      }
                                  }
                              }
                          }
                      }
                  } else {
                      if (features[133] < -0.06952246276259083) {
                          return 3;
                      } else {
                          if (features[180] < -0.2048601988147733) {
                              return 3;
                          } else {
                              if (features[309] < 0.11872864374125264) {
                                  if (features[301] < -0.13057876603753177) {
                                      return 3;
                                  } else {
                                      return 2;
                                  }
                              } else {
                                  return 3;
                              }
                          }
                      }
                  }
              }
          } else {
              if (features[393] < 0.07780131551375125) {
                  if (features[440] < 0.1621153558276302) {
                      if (features[287] < 0.0767670709637851) {
                          if (features[62] < 0.14822733359252743) {
                              if (features[228] < 0.25290537693204956) {
                                  return 2;
                              } else {
                                  return 3;
                              }
                          } else {
                              return 3;
                          }
                      } else {
                          if (features[802] < 0.05394687925836747) {
                              return 3;
                          } else {
                              return 2;
                          }
                      }
                  } else {
                      return 3;
                  }
              } else {
                  return 3;
              }
          }
        }
        

static inline int32_t extra_tree_postural_sway_450_predict_tree_2(const float *features, int32_t features_length) {
          if (features[716] < 0.05727472047293142) {
              if (features[704] < -0.02139834393741774) {
                  if (features[11] < 0.07496677916056288) {
                      if (features[232] < -0.11298403363629828) {
                          return 3;
                      } else {
                          if (features[290] < 0.18720942888023234) {
                              if (features[351] < -0.15348119181449266) {
                                  return 3;
                              } else {
                                  if (features[412] < 0.09480553707916511) {
                                      return 2;
                                  } else {
                                      return 3;
                                  }
                              }
                          } else {
                              return 3;
                          }
                      }
                  } else {
                      if (features[643] < 0.09100105745580583) {
                          return 3;
                      } else {
                          if (features[253] < -0.018263471990305008) {
                              return 3;
                          } else {
                              return 2;
                          }
                      }
                  }
              } else {
                  if (features[577] < 0.05548808081436779) {
                      if (features[323] < -0.04284611001756711) {
                          if (features[737] < -0.012367644260838737) {
                              return 3;
                          } else {
                              if (features[817] < -0.04610585136286566) {
                                  return 3;
                              } else {
                                  return 1;
                              }
                          }
                      } else {
                          if (features[419] < -0.005745820275338875) {
                              if (features[724] < -0.04741206702425457) {
                                  if (features[551] < -0.1037187987973483) {
                                      return 2;
                                  } else {
                                      return 3;
                                  }
                              } else {
                                  if (features[827] < -0.004189801382090783) {
                                      if (features[135] < 0.22261401478806483) {
                                          return 2;
                                      } else {
                                          return 3;
                                      }
                                  } else {
                                      if (features[331] < 0.06242013238250663) {
                                          if (features[239] < 0.1874339477451288) {
                                              return 0;
                                          } else {
                                              return 1;
                                          }
                                      } else {
                                          return 1;
                                      }
                                  }
                              }
                          } else {
                              if (features[385] < -0.08387242873272366) {
                                  if (features[832] < 0.05725852017315562) {
                                      if (features[536] < 0.10031231361729218) {
                                          return 1;
                                      } else {
                                          return 3;
                                      }
                                  } else {
                                      return 3;
                                  }
                              } else {
                                  if (features[680] < 0.044942556550044074) {
                                      if (features[96] < -0.03927515584175745) {
                                          return 1;
                                      } else {
                                          if (features[24] < 0.11056565659364148) {
                                              if (features[112] < 0.13588820438518218) {
                                                  if (features[562] < -0.0542038373086419) {
                                                      return 2;
                                                  } else {
                                                      if (features[754] < -0.031271268320730204) {
                                                          return 2;
                                                      } else {
                                                          if (features[857] < -0.037436642189521266) {
                                                              return 2;
                                                          } else {
                                                              if (features[348] < 0.09758821517154422) {
                                                                  return 0;
                                                              } else {
                                                                  if (features[271] < 0.06655960234454335) {
                                                                      return 1;
                                                                  } else {
                                                                      return 0;
                                                                  }
                                                              }
                                                          }
                                                      }
                                                  }
                                              } else {
                                                  return 1;
                                              }
                                          } else {
                                              if (features[586] < 0.020285559440289907) {
                                                  return 1;
                                              } else {
                                                  return 0;
                                              }
                                          }
                                      }
                                  } else {
                                      if (features[273] < 0.1478467696538886) {
                                          return 2;
                                      } else {
                                          return 3;
                                      }
                                  }
                              }
                          }
                      }
                  } else {
                      if (features[620] < -0.04726983793286943) {
                          if (features[228] < 0.016628675729757805) {
                              return 2;
                          } else {
                              return 3;
                          }
                      } else {
                          if (features[861] < -0.03677397807633244) {
                              return 2;
                          } else {
                              return 3;
                          }
                      }
                  }
              }
          } else {
              if (features[346] < 0.09478476967969807) {
                  if (features[192] < -0.18879904399225012) {
                      return 3;
                  } else {
                      if (features[444] < -0.1727663769813101) {
                          return 3;
                      } else {
                          if (features[98] < -0.08872233180277844) {
                              return 3;
                          } else {
                              if (features[324] < 0.1603637097951349) {
                                  return 2;
                              } else {
                                  return 3;
                              }
                          }
                      }
                  }
              } else {
                  return 3;
              }
          }
        }
        

static inline int32_t extra_tree_postural_sway_450_predict_tree_3(const float *features, int32_t features_length) {
          if (features[647] < -0.015144705995999097) {
              if (features[155] < 0.1443498486772401) {
                  if (features[331] < 0.12111191357997975) {
                      if (features[19] < -0.11799457161431659) {
                          if (features[18] < -0.2297499906101925) {
                              return 3;
                          } else {
                              return 2;
                          }
                      } else {
                          if (features[422] < -0.2000255196716364) {
                              return 3;
                          } else {
                              if (features[293] < 0.22465023413189883) {
                                  return 2;
                              } else {
                                  return 3;
                              }
                          }
                      }
                  } else {
                      return 3;
                  }
              } else {
                  return 3;
              }
          } else {
              if (features[540] < 0.03756256052469903) {
                  if (features[665] < 0.05644402010742958) {
                      if (features[311] < 0.18796506186388973) {
                          if (features[696] < -0.02657785111004518) {
                              if (features[274] < 0.10344462436026283) {
                                  if (features[361] < 0.6038574106026129) {
                                      return 2;
                                  } else {
                                      return 3;
                                  }
                              } else {
                                  return 3;
                              }
                          } else {
                              if (features[185] < 0.10590695751975632) {
                                  if (features[33] < -0.008612636142169311) {
                                      if (features[655] < -0.005382433526090279) {
                                          return 0;
                                      } else {
                                          if (features[119] < 0.05808615616874821) {
                                              if (features[624] < 0.018253182125548533) {
                                                  return 1;
                                              } else {
                                                  return 0;
                                              }
                                          } else {
                                              return 1;
                                          }
                                      }
                                  } else {
                                      if (features[156] < -0.030658526378139372) {
                                          if (features[881] < -0.030783125798663893) {
                                              return 3;
                                          } else {
                                              return 1;
                                          }
                                      } else {
                                          if (features[376] < 0.11172874965033167) {
                                              if (features[85] < -0.04172930860890514) {
                                                  return 1;
                                              } else {
                                                  if (features[891] < 0.05098834540138406) {
                                                      if (features[869] < -0.022453434313702173) {
                                                          return 2;
                                                      } else {
                                                          return 0;
                                                      }
                                                  } else {
                                                      return 2;
                                                  }
                                              }
                                          } else {
                                              return 1;
                                          }
                                      }
                                  }
                              } else {
                                  if (features[699] < 0.08427724317981311) {
                                      if (features[519] < -0.0691096402415235) {
                                          return 3;
                                      } else {
                                          if (features[108] < -0.019239927187292227) {
                                              return 1;
                                          } else {
                                              if (features[489] < 0.0246876646629617) {
                                                  return 1;
                                              } else {
                                                  return 0;
                                              }
                                          }
                                      }
                                  } else {
                                      return 3;
                                  }
                              }
                          }
                      } else {
                          if (features[611] < -0.036220002070892335) {
                              return 3;
                          } else {
                              return 1;
                          }
                      }
                  } else {
                      if (features[391] < 0.15134852134161503) {
                          if (features[198] < 0.18905115690059432) {
                              if (features[175] < 0.37388230366002867) {
                                  return 2;
                              } else {
                                  return 3;
                              }
                          } else {
                              return 3;
                          }
                      } else {
                          return 3;
                      }
                  }
              } else {
                  if (features[62] < 0.32160651119232286) {
                      if (features[174] < 0.19438634487402395) {
                          if (features[377] < 0.1424289974582229) {
                              if (features[397] < 0.11146211353955293) {
                                  if (features[112] < 0.23190304295831704) {
                                      return 2;
                                  } else {
                                      return 3;
                                  }
                              } else {
                                  return 3;
                              }
                          } else {
                              if (features[274] < 0.1220078753487426) {
                                  if (features[404] < -0.15968951550093585) {
                                      return 3;
                                  } else {
                                      return 1;
                                  }
                              } else {
                                  return 3;
                              }
                          }
                      } else {
                          return 3;
                      }
                  } else {
                      return 3;
                  }
              }
          }
        }
        

static inline int32_t extra_tree_postural_sway_450_predict_tree_4(const float *features, int32_t features_length) {
          if (features[549] < -0.011259720162476894) {
              if (features[421] < 0.23693951306741634) {
                  if (features[272] < 0.07206716395635893) {
                      if (features[238] < 0.11653236958372107) {
                          if (features[381] < 0.08123616602562131) {
                              if (features[185] < 0.19926763832931965) {
                                  return 2;
                              } else {
                                  return 3;
                              }
                          } else {
                              return 3;
                          }
                      } else {
                          return 3;
                      }
                  } else {
                      if (features[721] < -0.11942225304392552) {
                          if (features[494] < 0.13325934911446735) {
                              return 3;
                          } else {
                              return 2;
                          }
                      } else {
                          return 3;
                      }
                  }
              } else {
                  return 3;
              }
          } else {
              if (features[558] < 0.031964229792436794) {
                  if (features[307] < 0.1818709757174669) {
                      if (features[363] < 0.11797055850443616) {
                          if (features[351] < -0.011914583631904785) {
                              if (features[443] < 0.05759704811345895) {
                                  if (features[367] < -0.36122612818747607) {
                                      return 3;
                                  } else {
                                      if (features[581] < -0.03457480313468511) {
                                          return 2;
                                      } else {
                                          return 1;
                                      }
                                  }
                              } else {
                                  return 1;
                              }
                          } else {
                              if (features[586] < -0.01649593961232093) {
                                  if (features[288] < 0.12009898674498834) {
                                      return 2;
                                  } else {
                                      return 3;
                                  }
                              } else {
                                  if (features[394] < -0.09738476015223543) {
                                      return 1;
                                  } else {
                                      if (features[236] < -0.0011332839646835124) {
                                          if (features[738] < -0.01598031340913296) {
                                              return 2;
                                          } else {
                                              return 1;
                                          }
                                      } else {
                                          if (features[140] < -0.06737305942383856) {
                                              return 1;
                                          } else {
                                              if (features[874] < -0.011012858236554027) {
                                                  return 2;
                                              } else {
                                                  if (features[155] < 0.1486935957466775) {
                                                      if (features[439] < -0.051940550984261286) {
                                                          return 1;
                                                      } else {
                                                          return 0;
                                                      }
                                                  } else {
                                                      return 1;
                                                  }
                                              }
                                          }
                                      }
                                  }
                              }
                          }
                      } else {
                          if (features[867] < 0.051141962772188854) {
                              if (features[824] < 0.04021322615243371) {
                                  if (features[294] < 0.07008526837530238) {
                                      return 1;
                                  } else {
                                      if (features[657] < 0.023213059653077787) {
                                          return 1;
                                      } else {
                                          return 0;
                                      }
                                  }
                              } else {
                                  return 3;
                              }
                          } else {
                              return 3;
                          }
                      }
                  } else {
                      if (features[536] < 0.08129912710917847) {
                          if (features[822] < -0.019352015529300215) {
                              return 3;
                          } else {
                              if (features[39] < -0.17839610090728414) {
                                  return 3;
                              } else {
                                  return 1;
                              }
                          }
                      } else {
                          return 3;
                      }
                  }
              } else {
                  if (features[632] < -0.05625129997714237) {
                      if (features[236] < 0.3256101060966654) {
                          if (features[215] < -0.21005978801316028) {
                              return 3;
                          } else {
                              if (features[445] < 0.22006361211619352) {
                                  if (features[257] < 0.3289816643650264) {
                                      return 2;
                                  } else {
                                      return 3;
                                  }
                              } else {
                                  return 3;
                              }
                          }
                      } else {
                          return 3;
                      }
                  } else {
                      if (features[608] < 0.01340410584221996) {
                          if (features[185] < 0.2772318269078291) {
                              if (features[375] < -0.05936092995480008) {
                                  return 3;
                              } else {
                                  if (features[607] < -0.08104217729265023) {
                                      return 2;
                                  } else {
                                      if (features[803] < 0.05059294075483298) {
                                          return 3;
                                      } else {
                                          return 2;
                                      }
                                  }
                              }
                          } else {
                              return 3;
                          }
                      } else {
                          if (features[636] < 0.06601344268036434) {
                              if (features[562] < 0.06803649470071468) {
                                  if (features[160] < 0.07413963271105342) {
                                      return 1;
                                  } else {
                                      return 0;
                                  }
                              } else {
                                  return 3;
                              }
                          } else {
                              if (features[117] < -0.1043331057932087) {
                                  return 3;
                              } else {
                                  return 2;
                              }
                          }
                      }
                  }
              }
          }
        }
        

int32_t extra_tree_postural_sway_450_predict(const float *features, int32_t features_length) {

        int32_t votes[4] = {0,};
        int32_t _class = -1;

        _class = extra_tree_postural_sway_450_predict_tree_0(features, features_length); votes[_class] += 1;
    _class = extra_tree_postural_sway_450_predict_tree_1(features, features_length); votes[_class] += 1;
    _class = extra_tree_postural_sway_450_predict_tree_2(features, features_length); votes[_class] += 1;
    _class = extra_tree_postural_sway_450_predict_tree_3(features, features_length); votes[_class] += 1;
    _class = extra_tree_postural_sway_450_predict_tree_4(features, features_length); votes[_class] += 1;
    
        int32_t most_voted_class = -1;
        int32_t most_voted_votes = 0;
        for (int32_t i=0; i<4; i++) {

            if (votes[i] > most_voted_votes) {
                most_voted_class = i;
                most_voted_votes = votes[i];
            }
        }
        return most_voted_class;
    }
    