
    // !!! This file is generated using emlearn !!!

    #include <eml_trees.h>
    

EmlTreesNode extra_tree_postural_sway_200_nodes[342] = {
  { 395, -0.016243742871509703, 1, 14 },
  { 175, -0.16312115238618613, 2, 3 },
  { -1, 3, -1, -1 },
  { 122, -0.13823585500755864, 2, 4 },
  { 36, 0.19345864508107408, 5, 2 },
  { 100, -0.08432762690868228, 6, 8 },
  { 254, -0.06119593946439225, 7, 2 },
  { -1, 2, -1, -1 },
  { 63, 0.09411764225744668, 9, 12 },
  { 83, 0.21202212449261065, 10, 2 },
  { 111, 0.21397570004134392, 11, 2 },
  { 102, 0.20595050324257413, 7, 2 },
  { 88, 0.13709491408056004, 13, 2 },
  { 264, -0.022030538790917556, 7, 2 },
  { 296, -0.02063205496502371, 15, 21 },
  { 189, 0.03295844708977502, 16, 19 },
  { 181, -0.09076240813166442, 2, 17 },
  { 59, 0.0771574600056334, 18, 2 },
  { 74, -0.23132649148333972, 2, 7 },
  { 372, -0.15516148504146104, 20, 2 },
  { 136, 0.4525932727827665, 7, 2 },
  { 227, -0.028039961411642056, 22, 29 },
  { 185, 0.08113345353458884, 23, 27 },
  { 84, -0.12302824271071633, 2, 24 },
  { 54, 0.3080967034664015, 25, 2 },
  { 147, -0.2401770910203683, 2, 26 },
  { 128, -0.17843483857085027, 2, 7 },
  { 241, -0.03102558942132888, 2, 28 },
  { 232, 0.00012248354109965776, 2, 7 },
  { 216, 0.033740564754579275, 30, 60 },
  { 151, 0.15947030467024703, 31, 58 },
  { 36, 0.12272747166485642, 32, 56 },
  { 164, -0.04298814952060731, 33, 35 },
  { 16, 0.049958579744897647, 34, 2 },
  { -1, 1, -1, -1 },
  { 121, 0.14889193566550896, 36, 55 },
  { 132, -0.09923619695023492, 37, 40 },
  { 43, 0.06025791266255637, 38, 34 },
  { 373, -0.039836331925693594, 2, 39 },
  { 67, -0.23208547618562328, 2, 34 },
  { 92, 0.12744190813818462, 41, 34 },
  { 61, -0.0001481985416924847, 42, 45 },
  { 217, 0.0005092698756097806, 43, 34 },
  { 68, -0.03230381104077472, 34, 44 },
  { -1, 0, -1, -1 },
  { 201, -0.06857977350994561, 7, 46 },
  { 354, 0.10091657253180475, 47, 7 },
  { 350, -0.042797526657534925, 7, 48 },
  { 345, -0.002288162900707786, 49, 50 },
  { 5, 0.09968597970404648, 44, 34 },
  { 16, -0.039602829799268824, 34, 51 },
  { 105, 0.07583754948221881, 44, 52 },
  { 233, 0.004809716285910704, 53, 44 },
  { 233, 0.003631864366740184, 44, 54 },
  { 353, 0.0006743466341413654, 34, 44 },
  { 283, 0.059723210149696546, 34, 2 },
  { 235, 0.050172932033685017, 57, 2 },
  { 323, 0.03814889992569342, 34, 44 },
  { 293, -0.018436254723869644, 2, 59 },
  { 368, 0.0692898653239199, 34, 2 },
  { 64, 0.07196038069331467, 61, 69 },
  { 349, -0.10158069704518133, 62, 63 },
  { 156, 0.07473504028906747, 7, 2 },
  { 102, 0.1543973848741843, 64, 68 },
  { 255, -0.11957963248351708, 65, 66 },
  { 56, -0.13208255514051598, 2, 7 },
  { 224, 0.062413875486562374, 67, 2 },
  { 73, 0.003286077682816302, 34, 7 },
  { 277, 0.010968195941727599, 2, 34 },
  { 96, 0.25925062742543004, 70, 2 },
  { 75, 0.1784605153439392, 71, 2 },
  { 289, 0.04759798271586846, 72, 73 },
  { 75, 0.06592399117158548, 34, 44 },
  { 90, -0.1025532159455442, 2, 7 },
  { 62, 0.10944292204372263, 75, 141 },
  { 77, -0.15838994371448545, 76, 80 },
  { 252, 0.08252772208439899, 77, 2 },
  { 292, -0.012666829513586941, 2, 78 },
  { 339, 0.08110947438145324, 79, 2 },
  { 299, 0.06944994014521827, 34, 2 },
  { 65, 0.04014770472906348, 81, 112 },
  { 305, -0.08046055004551675, 82, 85 },
  { 12, 0.23134399837790032, 83, 2 },
  { 86, -0.17897158500175864, 2, 84 },
  { 176, 0.13109479146762515, 7, 2 },
  { 151, 0.12559126305220508, 86, 108 },
  { 262, -0.031734221768979304, 87, 90 },
  { 18, 0.02924816333435712, 7, 88 },
  { 100, 0.22323669161225668, 89, 2 },
  { 18, 0.07337485921079659, 7, 2 },
  { 58, -0.006293639624037228, 91, 96 },
  { 336, -0.07668548059594266, 92, 93 },
  { 100, 0.2570647645072637, 7, 2 },
  { 392, -0.008210924709157602, 94, 95 },
  { 60, -0.16750874923373654, 2, 7 },
  { 320, 0.04414211295303361, 34, 2 },
  { 225, -0.09263116077321751, 97, 98 },
  { 38, 0.12734568217145015, 7, 2 },
  { 352, -0.028900899418881562, 99, 100 },
  { 73, -0.027171172456372003, 2, 7 },
  { 5, 0.07530154627326102, 101, 106 },
  { 374, 0.09105724117429534, 102, 7 },
  { 172, -0.10687282870640286, 34, 103 },
  { 230, 0.06625590067330565, 104, 7 },
  { 75, -0.048060200753096805, 34, 105 },
  { 350, 0.04442521781625013, 44, 7 },
  { 140, -0.06143829514325111, 34, 107 },
  { 131, 0.006253417107271703, 34, 44 },
  { 306, 0.08182944928779173, 109, 2 },
  { 353, 0.07161938153686984, 110, 2 },
  { 223, 0.050862347293693225, 111, 2 },
  { 397, 0.06980404355435865, 34, 2 },
  { 253, -0.014537077340061183, 113, 119 },
  { 50, -0.060460610942072585, 2, 114 },
  { 81, 0.14129452003196538, 115, 2 },
  { 156, 0.16097898385030868, 116, 2 },
  { 331, -0.21537837617753622, 2, 117 },
  { 253, -0.05185630441145894, 7, 118 },
  { 365, -0.03680367581456948, 7, 44 },
  { 166, 0.029372081712054354, 120, 129 },
  { 237, 0.07891486275449885, 121, 128 },
  { 95, 0.09598918569484026, 122, 127 },
  { 144, -0.044881817485998454, 34, 123 },
  { 170, -0.010338269041899446, 124, 125 },
  { 354, 0.028588160775445286, 34, 7 },
  { 89, 0.0773894288939934, 44, 126 },
  { 90, 0.0914811633884365, 7, 44 },
  { 364, -0.05175477159309094, 2, 34 },
  { 155, -0.1576909546051251, 2, 7 },
  { 127, 0.11702122544739685, 130, 139 },
  { 112, -0.13222805258018325, 131, 132 },
  { 101, -0.008234010753636944, 34, 2 },
  { 113, -0.05647081948397829, 133, 134 },
  { 29, 0.07822279823993805, 2, 34 },
  { 265, -0.0032589174265522103, 2, 135 },
  { 220, -0.09739241829323426, 7, 136 },
  { 365, -0.019174386196058626, 7, 137 },
  { 296, 0.004401122028992741, 138, 44 },
  { 218, 0.010864509357613697, 44, 44 },
  { 9, 0.04115794426710109, 34, 140 },
  { 324, 0.016610477375698207, 34, 44 },
  { 213, 0.035520906303482425, 142, 153 },
  { 215, -0.04630336146979405, 2, 143 },
  { 284, 0.05490248805076292, 144, 2 },
  { 306, -0.011265904513277858, 2, 145 },
  { 287, -0.024751831741415507, 2, 146 },
  { 303, 0.07932942797193672, 147, 2 },
  { 225, -0.010502504550672167, 2, 148 },
  { 383, 0.02472691404651866, 149, 151 },
  { 89, 0.10364531609965896, 150, 34 },
  { 66, 0.06700456778177734, 44, 34 },
  { 142, 0.031107513383879515, 34, 152 },
  { 287, 0.033805540324829, 44, 34 },
  { 37, -0.05175308490446218, 2, 154 },
  { 207, 0.044480222385595215, 34, 2 },
  { 376, -0.014700805091356378, 156, 165 },
  { 91, 0.14569362098161753, 157, 2 },
  { 18, 0.14251149664151408, 158, 2 },
  { 7, -0.1088790459211384, 159, 160 },
  { 258, -0.08009410392943064, 7, 2 },
  { 189, 0.2520186488749999, 161, 2 },
  { 105, -0.1658728030355261, 2, 162 },
  { 108, 0.2686709510415752, 163, 2 },
  { 162, -0.25190713464648007, 2, 164 },
  { 74, 0.1291020635262728, 7, 2 },
  { 255, 0.042431572420146224, 166, 211 },
  { 251, -0.05196356391877999, 167, 172 },
  { 27, -0.10338442864436476, 168, 170 },
  { 158, 0.11024706860128608, 169, 2 },
  { 397, 0.014890667345413555, 2, 7 },
  { 170, 0.0699439005164606, 171, 2 },
  { 172, -0.0703475695801487, 2, 7 },
  { 367, 0.04765596426972185, 173, 202 },
  { 45, 0.16243920620635455, 174, 201 },
  { 180, 0.20988742489014, 175, 200 },
  { 26, -0.037302723535830085, 176, 178 },
  { 337, -0.019746666954595815, 7, 177 },
  { 243, -0.026422870136424817, 2, 34 },
  { 130, 0.140065783137594, 179, 199 },
  { 13, 0.0009853252353951847, 180, 182 },
  { 89, 0.12315736346444134, 181, 34 },
  { 288, 0.003806888947036527, 7, 44 },
  { 134, -0.020156475689797004, 183, 185 },
  { 300, 0.03515015957467288, 34, 184 },
  { 90, 0.09283507463811183, 7, 2 },
  { 85, -0.05460936053905299, 34, 186 },
  { 344, -0.01948547588431157, 7, 187 },
  { 349, 0.012436143266488162, 188, 196 },
  { 77, 0.11857785426997125, 189, 34 },
  { 85, -0.00018568879045996467, 190, 191 },
  { 339, 0.008847390392961611, 34, 44 },
  { 216, -0.014591670558797976, 7, 192 },
  { 119, -0.060503384040835925, 34, 193 },
  { 53, 0.09544391827099263, 194, 44 },
  { 162, 0.10064053207944632, 44, 195 },
  { 359, 0.0024604142456908533, 44, 34 },
  { 139, 0.09600923860841233, 44, 197 },
  { 134, 0.11414094964254286, 44, 198 },
  { 146, 0.12326368278493532, 44, 34 },
  { 294, -0.024018569438362447, 2, 34 },
  { 305, 0.06999233517941779, 34, 2 },
  { 395, 0.04221836481485326, 34, 2 },
  { 291, -0.09090840732535621, 203, 204 },
  { 114, 0.2957798545039356, 7, 2 },
  { 262, 0.023047173661152942, 205, 209 },
  { 265, 0.01238780684553517, 206, 208 },
  { 252, -0.0049046772742672995, 2, 207 },
  { 185, -0.1127191497293134, 2, 7 },
  { 222, 0.014159307200891189, 7, 2 },
  { 75, 0.10656477398141381, 210, 2 },
  { 16, -0.22521735714758473, 2, 7 },
  { 46, 0.22541050710071764, 212, 2 },
  { 13, 0.1934029672621559, 213, 2 },
  { 16, -0.19100577049811168, 2, 214 },
  { 106, 0.14237590238014505, 7, 2 },
  { 362, -0.05626347039132226, 216, 221 },
  { 75, -0.08847773716118085, 2, 217 },
  { 78, 0.11584356499326223, 218, 2 },
  { 184, 0.19066331939295267, 219, 2 },
  { 169, -0.17769296642964716, 2, 220 },
  { 10, 0.1850296556225906, 7, 2 },
  { 210, -0.03825319967835705, 222, 229 },
  { 155, 0.1679790949485258, 223, 2 },
  { 118, 0.17575477688244096, 224, 2 },
  { 59, 0.1962351077015136, 225, 2 },
  { 106, -0.10066847042829467, 2, 226 },
  { 175, 0.1502399171034487, 227, 2 },
  { 103, 0.10427343882374174, 228, 2 },
  { 36, 0.14772030699239794, 7, 2 },
  { 245, -0.014080585440661653, 230, 238 },
  { 148, 0.27295161244348254, 231, 2 },
  { 59, 0.16422163009096097, 232, 2 },
  { 30, -0.0760968359492114, 233, 234 },
  { 93, -0.014260241751527503, 7, 2 },
  { 99, 0.11357563754858119, 235, 2 },
  { 4, 0.031893639229691684, 7, 236 },
  { 316, 0.0797461200579274, 237, 7 },
  { 312, 0.025672315671674065, 44, 2 },
  { 86, -0.03230498038985363, 239, 247 },
  { 251, 0.06681268989588159, 240, 245 },
  { 306, -0.02237477591070869, 2, 241 },
  { 225, 0.11477556912995962, 242, 7 },
  { 377, 0.04244925180781922, 243, 244 },
  { 383, -0.012043962221943282, 2, 34 },
  { 213, -0.04621565018169836, 7, 2 },
  { 395, -0.15816370261449864, 246, 2 },
  { 6, 0.1696295434549939, 7, 2 },
  { 69, 0.1333452219077026, 248, 280 },
  { 260, -0.021716179448322548, 249, 256 },
  { 307, 0.08337917895347191, 250, 254 },
  { 139, 0.05501541135516569, 251, 253 },
  { 147, -0.0900154959901472, 252, 7 },
  { 242, 0.17742926881678067, 2, 7 },
  { 55, -0.1688583825644005, 2, 44 },
  { 255, -0.08699355792007796, 255, 2 },
  { 51, -0.1937625336176743, 2, 7 },
  { 227, 0.05614730172858373, 257, 277 },
  { 174, 0.16510600747319376, 258, 34 },
  { 179, -0.019722537927510525, 259, 261 },
  { 114, 0.13428685194773754, 260, 34 },
  { 146, -0.18845169666229622, 34, 44 },
  { 151, 0.1575391138588706, 262, 34 },
  { 238, 0.037837238140083156, 263, 7 },
  { 198, 0.14098708010671857, 264, 34 },
  { 251, 0.06058852851286407, 265, 7 },
  { 11, 0.0012566056881790771, 266, 267 },
  { 153, 0.06669084659487633, 44, 34 },
  { 36, 0.188707053533969, 268, 34 },
  { 320, 0.04896159148621444, 269, 7 },
  { 160, -0.03433901947531668, 34, 270 },
  { 351, -0.04087509703597882, 7, 271 },
  { 126, -0.036504621259774724, 34, 272 },
  { 356, 0.005976229079181418, 273, 44 },
  { 141, 0.02080376524075341, 274, 275 },
  { 89, 0.06860604763044886, 44, 34 },
  { 188, 0.03286841173684002, 276, 44 },
  { 79, 0.0799064375104267, 44, 7 },
  { 119, 0.10253281499924649, 278, 2 },
  { 4, 0.17094658449921868, 279, 2 },
  { 36, -0.07475444047275241, 2, 7 },
  { 252, -0.018761173792210234, 2, 281 },
  { 353, 0.12524934554537695, 282, 2 },
  { 318, -0.05311450682752515, 2, 283 },
  { 347, 0.03375222294520322, 284, 44 },
  { 55, 0.45878377404832105, 34, 2 },
  { 79, 0.1317430773746846, 286, 333 },
  { 289, -0.003826945389545533, 287, 298 },
  { 62, -0.2253853589372672, 2, 288 },
  { 37, 0.19263538709500716, 289, 2 },
  { 66, -0.07785749828509372, 290, 291 },
  { 252, 0.1384263303934113, 2, 7 },
  { 60, 0.12743235575184175, 292, 2 },
  { 390, -0.05635239328102826, 7, 293 },
  { 388, 0.008860400978801003, 294, 297 },
  { 336, 0.013325728458022823, 295, 296 },
  { 90, 0.061910807984245954, 44, 7 },
  { 132, -0.06310664799583016, 2, 7 },
  { 82, 0.13317724443747966, 7, 2 },
  { 39, 0.2170771428602859, 299, 329 },
  { 296, 0.04002807282433843, 300, 324 },
  { 189, 0.12801339599177186, 301, 320 },
  { 216, -0.029817873866151923, 7, 302 },
  { 70, -0.02898619201596936, 303, 304 },
  { 21, -0.2045128755024038, 2, 34 },
  { 161, -0.029042426990115, 34, 305 },
  { 208, 0.04489000598409472, 306, 319 },
  { 31, -0.028846778327718037, 34, 307 },
  { 309, -0.05591398051204943, 7, 308 },
  { 189, -0.01195527939880954, 34, 309 },
  { 150, 0.13448218909741708, 310, 318 },
  { 385, 0.07428233539336411, 311, 7 },
  { 114, -0.0002583935338729623, 312, 313 },
  { 302, 0.014402454316008747, 34, 44 },
  { 2, 0.12502926070700565, 314, 317 },
  { 368, 0.0036919663764031756, 315, 44 },
  { 91, 0.07213182045736573, 44, 316 },
  { 285, 0.007008537776493513, 44, 34 },
  { 137, 0.03473958133140265, 34, 44 },
  { 142, 0.09931809925854115, 44, 34 },
  { 51, 0.5278985617704176, 7, 2 },
  { 334, -0.02238312083851146, 2, 321 },
  { 283, 0.12500230803260187, 322, 2 },
  { 382, -0.0007944388224364538, 44, 323 },
  { 299, 0.02961442116989952, 34, 44 },
  { 125, 0.13099144563125958, 325, 2 },
  { 111, 0.12941208008739707, 326, 2 },
  { 139, 0.06736255169534128, 7, 327 },
  { 143, 0.09011298477961496, 7, 328 },
  { 138, 0.17152531433288856, 7, 2 },
  { 211, -0.06916771556203455, 2, 330 },
  { 127, 0.3406592631905172, 331, 2 },
  { 252, 0.09116337212549314, 332, 2 },
  { 377, -0.06686726714811123, 2, 34 },
  { 266, -0.008450925957225242, 2, 334 },
  { 376, 0.03227783523322997, 335, 340 },
  { 272, 0.09026346284070559, 336, 2 },
  { 294, 0.04345484477874574, 337, 2 },
  { 91, -0.20189837271915684, 2, 338 },
  { 305, 0.06651087501367464, 339, 2 },
  { 359, 0.11130020020172197, 34, 2 },
  { 331, -0.002093798354783738, 2, 341 },
  { 356, 0.020635526157291334, 2, 34 } 
};

int32_t extra_tree_postural_sway_200_tree_roots[5] = { 0, 74, 155, 215, 285 };

EmlTrees extra_tree_postural_sway_200 = {
        342,
        extra_tree_postural_sway_200_nodes,	  
        5,
        extra_tree_postural_sway_200_tree_roots,
    };

static inline int32_t extra_tree_postural_sway_200_predict_tree_0(const float *features, int32_t features_length) {
          if (features[395] < -0.016243742871509703) {
              if (features[175] < -0.16312115238618613) {
                  return 3;
              } else {
                  if (features[122] < -0.13823585500755864) {
                      return 3;
                  } else {
                      if (features[36] < 0.19345864508107408) {
                          if (features[100] < -0.08432762690868228) {
                              if (features[254] < -0.06119593946439225) {
                                  return 2;
                              } else {
                                  return 3;
                              }
                          } else {
                              if (features[63] < 0.09411764225744668) {
                                  if (features[83] < 0.21202212449261065) {
                                      if (features[111] < 0.21397570004134392) {
                                          if (features[102] < 0.20595050324257413) {
                                              return 2;
                                          } else {
                                              return 3;
                                          }
                                      } else {
                                          return 3;
                                      }
                                  } else {
                                      return 3;
                                  }
                              } else {
                                  if (features[88] < 0.13709491408056004) {
                                      if (features[264] < -0.022030538790917556) {
                                          return 2;
                                      } else {
                                          return 3;
                                      }
                                  } else {
                                      return 3;
                                  }
                              }
                          }
                      } else {
                          return 3;
                      }
                  }
              }
          } else {
              if (features[296] < -0.02063205496502371) {
                  if (features[189] < 0.03295844708977502) {
                      if (features[181] < -0.09076240813166442) {
                          return 3;
                      } else {
                          if (features[59] < 0.0771574600056334) {
                              if (features[74] < -0.23132649148333972) {
                                  return 3;
                              } else {
                                  return 2;
                              }
                          } else {
                              return 3;
                          }
                      }
                  } else {
                      if (features[372] < -0.15516148504146104) {
                          if (features[136] < 0.4525932727827665) {
                              return 2;
                          } else {
                              return 3;
                          }
                      } else {
                          return 3;
                      }
                  }
              } else {
                  if (features[227] < -0.028039961411642056) {
                      if (features[185] < 0.08113345353458884) {
                          if (features[84] < -0.12302824271071633) {
                              return 3;
                          } else {
                              if (features[54] < 0.3080967034664015) {
                                  if (features[147] < -0.2401770910203683) {
                                      return 3;
                                  } else {
                                      if (features[128] < -0.17843483857085027) {
                                          return 3;
                                      } else {
                                          return 2;
                                      }
                                  }
                              } else {
                                  return 3;
                              }
                          }
                      } else {
                          if (features[241] < -0.03102558942132888) {
                              return 3;
                          } else {
                              if (features[232] < 0.00012248354109965776) {
                                  return 3;
                              } else {
                                  return 2;
                              }
                          }
                      }
                  } else {
                      if (features[216] < 0.033740564754579275) {
                          if (features[151] < 0.15947030467024703) {
                              if (features[36] < 0.12272747166485642) {
                                  if (features[164] < -0.04298814952060731) {
                                      if (features[16] < 0.049958579744897647) {
                                          return 1;
                                      } else {
                                          return 3;
                                      }
                                  } else {
                                      if (features[121] < 0.14889193566550896) {
                                          if (features[132] < -0.09923619695023492) {
                                              if (features[43] < 0.06025791266255637) {
                                                  if (features[373] < -0.039836331925693594) {
                                                      return 3;
                                                  } else {
                                                      if (features[67] < -0.23208547618562328) {
                                                          return 3;
                                                      } else {
                                                          return 1;
                                                      }
                                                  }
                                              } else {
                                                  return 1;
                                              }
                                          } else {
                                              if (features[92] < 0.12744190813818462) {
                                                  if (features[61] < -0.0001481985416924847) {
                                                      if (features[217] < 0.0005092698756097806) {
                                                          if (features[68] < -0.03230381104077472) {
                                                              return 1;
                                                          } else {
                                                              return 0;
                                                          }
                                                      } else {
                                                          return 1;
                                                      }
                                                  } else {
                                                      if (features[201] < -0.06857977350994561) {
                                                          return 2;
                                                      } else {
                                                          if (features[354] < 0.10091657253180475) {
                                                              if (features[350] < -0.042797526657534925) {
                                                                  return 2;
                                                              } else {
                                                                  if (features[345] < -0.002288162900707786) {
                                                                      if (features[5] < 0.09968597970404648) {
                                                                          return 0;
                                                                      } else {
                                                                          return 1;
                                                                      }
                                                                  } else {
                                                                      if (features[16] < -0.039602829799268824) {
                                                                          return 1;
                                                                      } else {
                                                                          if (features[105] < 0.07583754948221881) {
                                                                              return 0;
                                                                          } else {
                                                                              if (features[233] < 0.004809716285910704) {
                                                                                  if (features[233] < 0.003631864366740184) {
                                                                                      return 0;
                                                                                  } else {
                                                                                      if (features[353] < 0.0006743466341413654) {
                                                                                          return 1;
                                                                                      } else {
                                                                                          return 0;
                                                                                      }
                                                                                  }
                                                                              } else {
                                                                                  return 0;
                                                                              }
                                                                          }
                                                                      }
                                                                  }
                                                              }
                                                          } else {
                                                              return 2;
                                                          }
                                                      }
                                                  }
                                              } else {
                                                  return 1;
                                              }
                                          }
                                      } else {
                                          if (features[283] < 0.059723210149696546) {
                                              return 1;
                                          } else {
                                              return 3;
                                          }
                                      }
                                  }
                              } else {
                                  if (features[235] < 0.050172932033685017) {
                                      if (features[323] < 0.03814889992569342) {
                                          return 1;
                                      } else {
                                          return 0;
                                      }
                                  } else {
                                      return 3;
                                  }
                              }
                          } else {
                              if (features[293] < -0.018436254723869644) {
                                  return 3;
                              } else {
                                  if (features[368] < 0.0692898653239199) {
                                      return 1;
                                  } else {
                                      return 3;
                                  }
                              }
                          }
                      } else {
                          if (features[64] < 0.07196038069331467) {
                              if (features[349] < -0.10158069704518133) {
                                  if (features[156] < 0.07473504028906747) {
                                      return 2;
                                  } else {
                                      return 3;
                                  }
                              } else {
                                  if (features[102] < 0.1543973848741843) {
                                      if (features[255] < -0.11957963248351708) {
                                          if (features[56] < -0.13208255514051598) {
                                              return 3;
                                          } else {
                                              return 2;
                                          }
                                      } else {
                                          if (features[224] < 0.062413875486562374) {
                                              if (features[73] < 0.003286077682816302) {
                                                  return 1;
                                              } else {
                                                  return 2;
                                              }
                                          } else {
                                              return 3;
                                          }
                                      }
                                  } else {
                                      if (features[277] < 0.010968195941727599) {
                                          return 3;
                                      } else {
                                          return 1;
                                      }
                                  }
                              }
                          } else {
                              if (features[96] < 0.25925062742543004) {
                                  if (features[75] < 0.1784605153439392) {
                                      if (features[289] < 0.04759798271586846) {
                                          if (features[75] < 0.06592399117158548) {
                                              return 1;
                                          } else {
                                              return 0;
                                          }
                                      } else {
                                          if (features[90] < -0.1025532159455442) {
                                              return 3;
                                          } else {
                                              return 2;
                                          }
                                      }
                                  } else {
                                      return 3;
                                  }
                              } else {
                                  return 3;
                              }
                          }
                      }
                  }
              }
          }
        }
        

static inline int32_t extra_tree_postural_sway_200_predict_tree_1(const float *features, int32_t features_length) {
          if (features[62] < 0.10944292204372263) {
              if (features[77] < -0.15838994371448545) {
                  if (features[252] < 0.08252772208439899) {
                      if (features[292] < -0.012666829513586941) {
                          return 3;
                      } else {
                          if (features[339] < 0.08110947438145324) {
                              if (features[299] < 0.06944994014521827) {
                                  return 1;
                              } else {
                                  return 3;
                              }
                          } else {
                              return 3;
                          }
                      }
                  } else {
                      return 3;
                  }
              } else {
                  if (features[65] < 0.04014770472906348) {
                      if (features[305] < -0.08046055004551675) {
                          if (features[12] < 0.23134399837790032) {
                              if (features[86] < -0.17897158500175864) {
                                  return 3;
                              } else {
                                  if (features[176] < 0.13109479146762515) {
                                      return 2;
                                  } else {
                                      return 3;
                                  }
                              }
                          } else {
                              return 3;
                          }
                      } else {
                          if (features[151] < 0.12559126305220508) {
                              if (features[262] < -0.031734221768979304) {
                                  if (features[18] < 0.02924816333435712) {
                                      return 2;
                                  } else {
                                      if (features[100] < 0.22323669161225668) {
                                          if (features[18] < 0.07337485921079659) {
                                              return 2;
                                          } else {
                                              return 3;
                                          }
                                      } else {
                                          return 3;
                                      }
                                  }
                              } else {
                                  if (features[58] < -0.006293639624037228) {
                                      if (features[336] < -0.07668548059594266) {
                                          if (features[100] < 0.2570647645072637) {
                                              return 2;
                                          } else {
                                              return 3;
                                          }
                                      } else {
                                          if (features[392] < -0.008210924709157602) {
                                              if (features[60] < -0.16750874923373654) {
                                                  return 3;
                                              } else {
                                                  return 2;
                                              }
                                          } else {
                                              if (features[320] < 0.04414211295303361) {
                                                  return 1;
                                              } else {
                                                  return 3;
                                              }
                                          }
                                      }
                                  } else {
                                      if (features[225] < -0.09263116077321751) {
                                          if (features[38] < 0.12734568217145015) {
                                              return 2;
                                          } else {
                                              return 3;
                                          }
                                      } else {
                                          if (features[352] < -0.028900899418881562) {
                                              if (features[73] < -0.027171172456372003) {
                                                  return 3;
                                              } else {
                                                  return 2;
                                              }
                                          } else {
                                              if (features[5] < 0.07530154627326102) {
                                                  if (features[374] < 0.09105724117429534) {
                                                      if (features[172] < -0.10687282870640286) {
                                                          return 1;
                                                      } else {
                                                          if (features[230] < 0.06625590067330565) {
                                                              if (features[75] < -0.048060200753096805) {
                                                                  return 1;
                                                              } else {
                                                                  if (features[350] < 0.04442521781625013) {
                                                                      return 0;
                                                                  } else {
                                                                      return 2;
                                                                  }
                                                              }
                                                          } else {
                                                              return 2;
                                                          }
                                                      }
                                                  } else {
                                                      return 2;
                                                  }
                                              } else {
                                                  if (features[140] < -0.06143829514325111) {
                                                      return 1;
                                                  } else {
                                                      if (features[131] < 0.006253417107271703) {
                                                          return 1;
                                                      } else {
                                                          return 0;
                                                      }
                                                  }
                                              }
                                          }
                                      }
                                  }
                              }
                          } else {
                              if (features[306] < 0.08182944928779173) {
                                  if (features[353] < 0.07161938153686984) {
                                      if (features[223] < 0.050862347293693225) {
                                          if (features[397] < 0.06980404355435865) {
                                              return 1;
                                          } else {
                                              return 3;
                                          }
                                      } else {
                                          return 3;
                                      }
                                  } else {
                                      return 3;
                                  }
                              } else {
                                  return 3;
                              }
                          }
                      }
                  } else {
                      if (features[253] < -0.014537077340061183) {
                          if (features[50] < -0.060460610942072585) {
                              return 3;
                          } else {
                              if (features[81] < 0.14129452003196538) {
                                  if (features[156] < 0.16097898385030868) {
                                      if (features[331] < -0.21537837617753622) {
                                          return 3;
                                      } else {
                                          if (features[253] < -0.05185630441145894) {
                                              return 2;
                                          } else {
                                              if (features[365] < -0.03680367581456948) {
                                                  return 2;
                                              } else {
                                                  return 0;
                                              }
                                          }
                                      }
                                  } else {
                                      return 3;
                                  }
                              } else {
                                  return 3;
                              }
                          }
                      } else {
                          if (features[166] < 0.029372081712054354) {
                              if (features[237] < 0.07891486275449885) {
                                  if (features[95] < 0.09598918569484026) {
                                      if (features[144] < -0.044881817485998454) {
                                          return 1;
                                      } else {
                                          if (features[170] < -0.010338269041899446) {
                                              if (features[354] < 0.028588160775445286) {
                                                  return 1;
                                              } else {
                                                  return 2;
                                              }
                                          } else {
                                              if (features[89] < 0.0773894288939934) {
                                                  return 0;
                                              } else {
                                                  if (features[90] < 0.0914811633884365) {
                                                      return 2;
                                                  } else {
                                                      return 0;
                                                  }
                                              }
                                          }
                                      }
                                  } else {
                                      if (features[364] < -0.05175477159309094) {
                                          return 3;
                                      } else {
                                          return 1;
                                      }
                                  }
                              } else {
                                  if (features[155] < -0.1576909546051251) {
                                      return 3;
                                  } else {
                                      return 2;
                                  }
                              }
                          } else {
                              if (features[127] < 0.11702122544739685) {
                                  if (features[112] < -0.13222805258018325) {
                                      if (features[101] < -0.008234010753636944) {
                                          return 1;
                                      } else {
                                          return 3;
                                      }
                                  } else {
                                      if (features[113] < -0.05647081948397829) {
                                          if (features[29] < 0.07822279823993805) {
                                              return 3;
                                          } else {
                                              return 1;
                                          }
                                      } else {
                                          if (features[265] < -0.0032589174265522103) {
                                              return 3;
                                          } else {
                                              if (features[220] < -0.09739241829323426) {
                                                  return 2;
                                              } else {
                                                  if (features[365] < -0.019174386196058626) {
                                                      return 2;
                                                  } else {
                                                      if (features[296] < 0.004401122028992741) {
                                                          if (features[218] < 0.010864509357613697) {
                                                              return 0;
                                                          } else {
                                                              return 0;
                                                          }
                                                      } else {
                                                          return 0;
                                                      }
                                                  }
                                              }
                                          }
                                      }
                                  }
                              } else {
                                  if (features[9] < 0.04115794426710109) {
                                      return 1;
                                  } else {
                                      if (features[324] < 0.016610477375698207) {
                                          return 1;
                                      } else {
                                          return 0;
                                      }
                                  }
                              }
                          }
                      }
                  }
              }
          } else {
              if (features[213] < 0.035520906303482425) {
                  if (features[215] < -0.04630336146979405) {
                      return 3;
                  } else {
                      if (features[284] < 0.05490248805076292) {
                          if (features[306] < -0.011265904513277858) {
                              return 3;
                          } else {
                              if (features[287] < -0.024751831741415507) {
                                  return 3;
                              } else {
                                  if (features[303] < 0.07932942797193672) {
                                      if (features[225] < -0.010502504550672167) {
                                          return 3;
                                      } else {
                                          if (features[383] < 0.02472691404651866) {
                                              if (features[89] < 0.10364531609965896) {
                                                  if (features[66] < 0.06700456778177734) {
                                                      return 0;
                                                  } else {
                                                      return 1;
                                                  }
                                              } else {
                                                  return 1;
                                              }
                                          } else {
                                              if (features[142] < 0.031107513383879515) {
                                                  return 1;
                                              } else {
                                                  if (features[287] < 0.033805540324829) {
                                                      return 0;
                                                  } else {
                                                      return 1;
                                                  }
                                              }
                                          }
                                      }
                                  } else {
                                      return 3;
                                  }
                              }
                          }
                      } else {
                          return 3;
                      }
                  }
              } else {
                  if (features[37] < -0.05175308490446218) {
                      return 3;
                  } else {
                      if (features[207] < 0.044480222385595215) {
                          return 1;
                      } else {
                          return 3;
                      }
                  }
              }
          }
        }
        

static inline int32_t extra_tree_postural_sway_200_predict_tree_2(const float *features, int32_t features_length) {
          if (features[376] < -0.014700805091356378) {
              if (features[91] < 0.14569362098161753) {
                  if (features[18] < 0.14251149664151408) {
                      if (features[7] < -0.1088790459211384) {
                          if (features[258] < -0.08009410392943064) {
                              return 2;
                          } else {
                              return 3;
                          }
                      } else {
                          if (features[189] < 0.2520186488749999) {
                              if (features[105] < -0.1658728030355261) {
                                  return 3;
                              } else {
                                  if (features[108] < 0.2686709510415752) {
                                      if (features[162] < -0.25190713464648007) {
                                          return 3;
                                      } else {
                                          if (features[74] < 0.1291020635262728) {
                                              return 2;
                                          } else {
                                              return 3;
                                          }
                                      }
                                  } else {
                                      return 3;
                                  }
                              }
                          } else {
                              return 3;
                          }
                      }
                  } else {
                      return 3;
                  }
              } else {
                  return 3;
              }
          } else {
              if (features[255] < 0.042431572420146224) {
                  if (features[251] < -0.05196356391877999) {
                      if (features[27] < -0.10338442864436476) {
                          if (features[158] < 0.11024706860128608) {
                              if (features[397] < 0.014890667345413555) {
                                  return 3;
                              } else {
                                  return 2;
                              }
                          } else {
                              return 3;
                          }
                      } else {
                          if (features[170] < 0.0699439005164606) {
                              if (features[172] < -0.0703475695801487) {
                                  return 3;
                              } else {
                                  return 2;
                              }
                          } else {
                              return 3;
                          }
                      }
                  } else {
                      if (features[367] < 0.04765596426972185) {
                          if (features[45] < 0.16243920620635455) {
                              if (features[180] < 0.20988742489014) {
                                  if (features[26] < -0.037302723535830085) {
                                      if (features[337] < -0.019746666954595815) {
                                          return 2;
                                      } else {
                                          if (features[243] < -0.026422870136424817) {
                                              return 3;
                                          } else {
                                              return 1;
                                          }
                                      }
                                  } else {
                                      if (features[130] < 0.140065783137594) {
                                          if (features[13] < 0.0009853252353951847) {
                                              if (features[89] < 0.12315736346444134) {
                                                  if (features[288] < 0.003806888947036527) {
                                                      return 2;
                                                  } else {
                                                      return 0;
                                                  }
                                              } else {
                                                  return 1;
                                              }
                                          } else {
                                              if (features[134] < -0.020156475689797004) {
                                                  if (features[300] < 0.03515015957467288) {
                                                      return 1;
                                                  } else {
                                                      if (features[90] < 0.09283507463811183) {
                                                          return 2;
                                                      } else {
                                                          return 3;
                                                      }
                                                  }
                                              } else {
                                                  if (features[85] < -0.05460936053905299) {
                                                      return 1;
                                                  } else {
                                                      if (features[344] < -0.01948547588431157) {
                                                          return 2;
                                                      } else {
                                                          if (features[349] < 0.012436143266488162) {
                                                              if (features[77] < 0.11857785426997125) {
                                                                  if (features[85] < -0.00018568879045996467) {
                                                                      if (features[339] < 0.008847390392961611) {
                                                                          return 1;
                                                                      } else {
                                                                          return 0;
                                                                      }
                                                                  } else {
                                                                      if (features[216] < -0.014591670558797976) {
                                                                          return 2;
                                                                      } else {
                                                                          if (features[119] < -0.060503384040835925) {
                                                                              return 1;
                                                                          } else {
                                                                              if (features[53] < 0.09544391827099263) {
                                                                                  if (features[162] < 0.10064053207944632) {
                                                                                      return 0;
                                                                                  } else {
                                                                                      if (features[359] < 0.0024604142456908533) {
                                                                                          return 0;
                                                                                      } else {
                                                                                          return 1;
                                                                                      }
                                                                                  }
                                                                              } else {
                                                                                  return 0;
                                                                              }
                                                                          }
                                                                      }
                                                                  }
                                                              } else {
                                                                  return 1;
                                                              }
                                                          } else {
                                                              if (features[139] < 0.09600923860841233) {
                                                                  return 0;
                                                              } else {
                                                                  if (features[134] < 0.11414094964254286) {
                                                                      return 0;
                                                                  } else {
                                                                      if (features[146] < 0.12326368278493532) {
                                                                          return 0;
                                                                      } else {
                                                                          return 1;
                                                                      }
                                                                  }
                                                              }
                                                          }
                                                      }
                                                  }
                                              }
                                          }
                                      } else {
                                          if (features[294] < -0.024018569438362447) {
                                              return 3;
                                          } else {
                                              return 1;
                                          }
                                      }
                                  }
                              } else {
                                  if (features[305] < 0.06999233517941779) {
                                      return 1;
                                  } else {
                                      return 3;
                                  }
                              }
                          } else {
                              if (features[395] < 0.04221836481485326) {
                                  return 1;
                              } else {
                                  return 3;
                              }
                          }
                      } else {
                          if (features[291] < -0.09090840732535621) {
                              if (features[114] < 0.2957798545039356) {
                                  return 2;
                              } else {
                                  return 3;
                              }
                          } else {
                              if (features[262] < 0.023047173661152942) {
                                  if (features[265] < 0.01238780684553517) {
                                      if (features[252] < -0.0049046772742672995) {
                                          return 3;
                                      } else {
                                          if (features[185] < -0.1127191497293134) {
                                              return 3;
                                          } else {
                                              return 2;
                                          }
                                      }
                                  } else {
                                      if (features[222] < 0.014159307200891189) {
                                          return 2;
                                      } else {
                                          return 3;
                                      }
                                  }
                              } else {
                                  if (features[75] < 0.10656477398141381) {
                                      if (features[16] < -0.22521735714758473) {
                                          return 3;
                                      } else {
                                          return 2;
                                      }
                                  } else {
                                      return 3;
                                  }
                              }
                          }
                      }
                  }
              } else {
                  if (features[46] < 0.22541050710071764) {
                      if (features[13] < 0.1934029672621559) {
                          if (features[16] < -0.19100577049811168) {
                              return 3;
                          } else {
                              if (features[106] < 0.14237590238014505) {
                                  return 2;
                              } else {
                                  return 3;
                              }
                          }
                      } else {
                          return 3;
                      }
                  } else {
                      return 3;
                  }
              }
          }
        }
        

static inline int32_t extra_tree_postural_sway_200_predict_tree_3(const float *features, int32_t features_length) {
          if (features[362] < -0.05626347039132226) {
              if (features[75] < -0.08847773716118085) {
                  return 3;
              } else {
                  if (features[78] < 0.11584356499326223) {
                      if (features[184] < 0.19066331939295267) {
                          if (features[169] < -0.17769296642964716) {
                              return 3;
                          } else {
                              if (features[10] < 0.1850296556225906) {
                                  return 2;
                              } else {
                                  return 3;
                              }
                          }
                      } else {
                          return 3;
                      }
                  } else {
                      return 3;
                  }
              }
          } else {
              if (features[210] < -0.03825319967835705) {
                  if (features[155] < 0.1679790949485258) {
                      if (features[118] < 0.17575477688244096) {
                          if (features[59] < 0.1962351077015136) {
                              if (features[106] < -0.10066847042829467) {
                                  return 3;
                              } else {
                                  if (features[175] < 0.1502399171034487) {
                                      if (features[103] < 0.10427343882374174) {
                                          if (features[36] < 0.14772030699239794) {
                                              return 2;
                                          } else {
                                              return 3;
                                          }
                                      } else {
                                          return 3;
                                      }
                                  } else {
                                      return 3;
                                  }
                              }
                          } else {
                              return 3;
                          }
                      } else {
                          return 3;
                      }
                  } else {
                      return 3;
                  }
              } else {
                  if (features[245] < -0.014080585440661653) {
                      if (features[148] < 0.27295161244348254) {
                          if (features[59] < 0.16422163009096097) {
                              if (features[30] < -0.0760968359492114) {
                                  if (features[93] < -0.014260241751527503) {
                                      return 2;
                                  } else {
                                      return 3;
                                  }
                              } else {
                                  if (features[99] < 0.11357563754858119) {
                                      if (features[4] < 0.031893639229691684) {
                                          return 2;
                                      } else {
                                          if (features[316] < 0.0797461200579274) {
                                              if (features[312] < 0.025672315671674065) {
                                                  return 0;
                                              } else {
                                                  return 3;
                                              }
                                          } else {
                                              return 2;
                                          }
                                      }
                                  } else {
                                      return 3;
                                  }
                              }
                          } else {
                              return 3;
                          }
                      } else {
                          return 3;
                      }
                  } else {
                      if (features[86] < -0.03230498038985363) {
                          if (features[251] < 0.06681268989588159) {
                              if (features[306] < -0.02237477591070869) {
                                  return 3;
                              } else {
                                  if (features[225] < 0.11477556912995962) {
                                      if (features[377] < 0.04244925180781922) {
                                          if (features[383] < -0.012043962221943282) {
                                              return 3;
                                          } else {
                                              return 1;
                                          }
                                      } else {
                                          if (features[213] < -0.04621565018169836) {
                                              return 2;
                                          } else {
                                              return 3;
                                          }
                                      }
                                  } else {
                                      return 2;
                                  }
                              }
                          } else {
                              if (features[395] < -0.15816370261449864) {
                                  if (features[6] < 0.1696295434549939) {
                                      return 2;
                                  } else {
                                      return 3;
                                  }
                              } else {
                                  return 3;
                              }
                          }
                      } else {
                          if (features[69] < 0.1333452219077026) {
                              if (features[260] < -0.021716179448322548) {
                                  if (features[307] < 0.08337917895347191) {
                                      if (features[139] < 0.05501541135516569) {
                                          if (features[147] < -0.0900154959901472) {
                                              if (features[242] < 0.17742926881678067) {
                                                  return 3;
                                              } else {
                                                  return 2;
                                              }
                                          } else {
                                              return 2;
                                          }
                                      } else {
                                          if (features[55] < -0.1688583825644005) {
                                              return 3;
                                          } else {
                                              return 0;
                                          }
                                      }
                                  } else {
                                      if (features[255] < -0.08699355792007796) {
                                          if (features[51] < -0.1937625336176743) {
                                              return 3;
                                          } else {
                                              return 2;
                                          }
                                      } else {
                                          return 3;
                                      }
                                  }
                              } else {
                                  if (features[227] < 0.05614730172858373) {
                                      if (features[174] < 0.16510600747319376) {
                                          if (features[179] < -0.019722537927510525) {
                                              if (features[114] < 0.13428685194773754) {
                                                  if (features[146] < -0.18845169666229622) {
                                                      return 1;
                                                  } else {
                                                      return 0;
                                                  }
                                              } else {
                                                  return 1;
                                              }
                                          } else {
                                              if (features[151] < 0.1575391138588706) {
                                                  if (features[238] < 0.037837238140083156) {
                                                      if (features[198] < 0.14098708010671857) {
                                                          if (features[251] < 0.06058852851286407) {
                                                              if (features[11] < 0.0012566056881790771) {
                                                                  if (features[153] < 0.06669084659487633) {
                                                                      return 0;
                                                                  } else {
                                                                      return 1;
                                                                  }
                                                              } else {
                                                                  if (features[36] < 0.188707053533969) {
                                                                      if (features[320] < 0.04896159148621444) {
                                                                          if (features[160] < -0.03433901947531668) {
                                                                              return 1;
                                                                          } else {
                                                                              if (features[351] < -0.04087509703597882) {
                                                                                  return 2;
                                                                              } else {
                                                                                  if (features[126] < -0.036504621259774724) {
                                                                                      return 1;
                                                                                  } else {
                                                                                      if (features[356] < 0.005976229079181418) {
                                                                                          if (features[141] < 0.02080376524075341) {
                                                                                              if (features[89] < 0.06860604763044886) {
                                                                                                  return 0;
                                                                                              } else {
                                                                                                  return 1;
                                                                                              }
                                                                                          } else {
                                                                                              if (features[188] < 0.03286841173684002) {
                                                                                                  if (features[79] < 0.0799064375104267) {
                                                                                                      return 0;
                                                                                                  } else {
                                                                                                      return 2;
                                                                                                  }
                                                                                              } else {
                                                                                                  return 0;
                                                                                              }
                                                                                          }
                                                                                      } else {
                                                                                          return 0;
                                                                                      }
                                                                                  }
                                                                              }
                                                                          }
                                                                      } else {
                                                                          return 2;
                                                                      }
                                                                  } else {
                                                                      return 1;
                                                                  }
                                                              }
                                                          } else {
                                                              return 2;
                                                          }
                                                      } else {
                                                          return 1;
                                                      }
                                                  } else {
                                                      return 2;
                                                  }
                                              } else {
                                                  return 1;
                                              }
                                          }
                                      } else {
                                          return 1;
                                      }
                                  } else {
                                      if (features[119] < 0.10253281499924649) {
                                          if (features[4] < 0.17094658449921868) {
                                              if (features[36] < -0.07475444047275241) {
                                                  return 3;
                                              } else {
                                                  return 2;
                                              }
                                          } else {
                                              return 3;
                                          }
                                      } else {
                                          return 3;
                                      }
                                  }
                              }
                          } else {
                              if (features[252] < -0.018761173792210234) {
                                  return 3;
                              } else {
                                  if (features[353] < 0.12524934554537695) {
                                      if (features[318] < -0.05311450682752515) {
                                          return 3;
                                      } else {
                                          if (features[347] < 0.03375222294520322) {
                                              if (features[55] < 0.45878377404832105) {
                                                  return 1;
                                              } else {
                                                  return 3;
                                              }
                                          } else {
                                              return 0;
                                          }
                                      }
                                  } else {
                                      return 3;
                                  }
                              }
                          }
                      }
                  }
              }
          }
        }
        

static inline int32_t extra_tree_postural_sway_200_predict_tree_4(const float *features, int32_t features_length) {
          if (features[79] < 0.1317430773746846) {
              if (features[289] < -0.003826945389545533) {
                  if (features[62] < -0.2253853589372672) {
                      return 3;
                  } else {
                      if (features[37] < 0.19263538709500716) {
                          if (features[66] < -0.07785749828509372) {
                              if (features[252] < 0.1384263303934113) {
                                  return 3;
                              } else {
                                  return 2;
                              }
                          } else {
                              if (features[60] < 0.12743235575184175) {
                                  if (features[390] < -0.05635239328102826) {
                                      return 2;
                                  } else {
                                      if (features[388] < 0.008860400978801003) {
                                          if (features[336] < 0.013325728458022823) {
                                              if (features[90] < 0.061910807984245954) {
                                                  return 0;
                                              } else {
                                                  return 2;
                                              }
                                          } else {
                                              if (features[132] < -0.06310664799583016) {
                                                  return 3;
                                              } else {
                                                  return 2;
                                              }
                                          }
                                      } else {
                                          if (features[82] < 0.13317724443747966) {
                                              return 2;
                                          } else {
                                              return 3;
                                          }
                                      }
                                  }
                              } else {
                                  return 3;
                              }
                          }
                      } else {
                          return 3;
                      }
                  }
              } else {
                  if (features[39] < 0.2170771428602859) {
                      if (features[296] < 0.04002807282433843) {
                          if (features[189] < 0.12801339599177186) {
                              if (features[216] < -0.029817873866151923) {
                                  return 2;
                              } else {
                                  if (features[70] < -0.02898619201596936) {
                                      if (features[21] < -0.2045128755024038) {
                                          return 3;
                                      } else {
                                          return 1;
                                      }
                                  } else {
                                      if (features[161] < -0.029042426990115) {
                                          return 1;
                                      } else {
                                          if (features[208] < 0.04489000598409472) {
                                              if (features[31] < -0.028846778327718037) {
                                                  return 1;
                                              } else {
                                                  if (features[309] < -0.05591398051204943) {
                                                      return 2;
                                                  } else {
                                                      if (features[189] < -0.01195527939880954) {
                                                          return 1;
                                                      } else {
                                                          if (features[150] < 0.13448218909741708) {
                                                              if (features[385] < 0.07428233539336411) {
                                                                  if (features[114] < -0.0002583935338729623) {
                                                                      if (features[302] < 0.014402454316008747) {
                                                                          return 1;
                                                                      } else {
                                                                          return 0;
                                                                      }
                                                                  } else {
                                                                      if (features[2] < 0.12502926070700565) {
                                                                          if (features[368] < 0.0036919663764031756) {
                                                                              if (features[91] < 0.07213182045736573) {
                                                                                  return 0;
                                                                              } else {
                                                                                  if (features[285] < 0.007008537776493513) {
                                                                                      return 0;
                                                                                  } else {
                                                                                      return 1;
                                                                                  }
                                                                              }
                                                                          } else {
                                                                              return 0;
                                                                          }
                                                                      } else {
                                                                          if (features[137] < 0.03473958133140265) {
                                                                              return 1;
                                                                          } else {
                                                                              return 0;
                                                                          }
                                                                      }
                                                                  }
                                                              } else {
                                                                  return 2;
                                                              }
                                                          } else {
                                                              if (features[142] < 0.09931809925854115) {
                                                                  return 0;
                                                              } else {
                                                                  return 1;
                                                              }
                                                          }
                                                      }
                                                  }
                                              }
                                          } else {
                                              if (features[51] < 0.5278985617704176) {
                                                  return 2;
                                              } else {
                                                  return 3;
                                              }
                                          }
                                      }
                                  }
                              }
                          } else {
                              if (features[334] < -0.02238312083851146) {
                                  return 3;
                              } else {
                                  if (features[283] < 0.12500230803260187) {
                                      if (features[382] < -0.0007944388224364538) {
                                          return 0;
                                      } else {
                                          if (features[299] < 0.02961442116989952) {
                                              return 1;
                                          } else {
                                              return 0;
                                          }
                                      }
                                  } else {
                                      return 3;
                                  }
                              }
                          }
                      } else {
                          if (features[125] < 0.13099144563125958) {
                              if (features[111] < 0.12941208008739707) {
                                  if (features[139] < 0.06736255169534128) {
                                      return 2;
                                  } else {
                                      if (features[143] < 0.09011298477961496) {
                                          return 2;
                                      } else {
                                          if (features[138] < 0.17152531433288856) {
                                              return 2;
                                          } else {
                                              return 3;
                                          }
                                      }
                                  }
                              } else {
                                  return 3;
                              }
                          } else {
                              return 3;
                          }
                      }
                  } else {
                      if (features[211] < -0.06916771556203455) {
                          return 3;
                      } else {
                          if (features[127] < 0.3406592631905172) {
                              if (features[252] < 0.09116337212549314) {
                                  if (features[377] < -0.06686726714811123) {
                                      return 3;
                                  } else {
                                      return 1;
                                  }
                              } else {
                                  return 3;
                              }
                          } else {
                              return 3;
                          }
                      }
                  }
              }
          } else {
              if (features[266] < -0.008450925957225242) {
                  return 3;
              } else {
                  if (features[376] < 0.03227783523322997) {
                      if (features[272] < 0.09026346284070559) {
                          if (features[294] < 0.04345484477874574) {
                              if (features[91] < -0.20189837271915684) {
                                  return 3;
                              } else {
                                  if (features[305] < 0.06651087501367464) {
                                      if (features[359] < 0.11130020020172197) {
                                          return 1;
                                      } else {
                                          return 3;
                                      }
                                  } else {
                                      return 3;
                                  }
                              }
                          } else {
                              return 3;
                          }
                      } else {
                          return 3;
                      }
                  } else {
                      if (features[331] < -0.002093798354783738) {
                          return 3;
                      } else {
                          if (features[356] < 0.020635526157291334) {
                              return 3;
                          } else {
                              return 1;
                          }
                      }
                  }
              }
          }
        }
        

int32_t extra_tree_postural_sway_200_predict(const float *features, int32_t features_length) {

        int32_t votes[4] = {0,};
        int32_t _class = -1;

        _class = extra_tree_postural_sway_200_predict_tree_0(features, features_length); votes[_class] += 1;
    _class = extra_tree_postural_sway_200_predict_tree_1(features, features_length); votes[_class] += 1;
    _class = extra_tree_postural_sway_200_predict_tree_2(features, features_length); votes[_class] += 1;
    _class = extra_tree_postural_sway_200_predict_tree_3(features, features_length); votes[_class] += 1;
    _class = extra_tree_postural_sway_200_predict_tree_4(features, features_length); votes[_class] += 1;
    
        int32_t most_voted_class = -1;
        int32_t most_voted_votes = 0;
        for (int32_t i=0; i<4; i++) {

            if (votes[i] > most_voted_votes) {
                most_voted_class = i;
                most_voted_votes = votes[i];
            }
        }
        return most_voted_class;
    }
    