
    // !!! This file is generated using emlearn !!!

    #include "eml_trees.h"
    

EmlTreesNode random_forest_postural_sway_100_nodes[397] = {
  { 156, -0.008559809066355228, 1, 14 },
  { 59, 0.10409733280539513, 2, 5 },
  { 89, 0.10781921446323395, 3, 13 },
  { 8, 0.09029636532068253, 4, 12 },
  { 34, -0.14523257315158844, 5, 6 },
  { -1, 3, -1, -1 },
  { 158, -0.009067196398973465, 7, 9 },
  { 40, 0.2243654951453209, 8, 5 },
  { -1, 2, -1, -1 },
  { 181, 0.02421722747385502, 10, 8 },
  { 54, 0.040425559505820274, 11, 8 },
  { -1, 0, -1, -1 },
  { 162, 0.0026104161515831947, 5, 8 },
  { 92, -0.018125133123248816, 8, 5 },
  { 168, 0.03955034352838993, 15, 63 },
  { 143, 0.04612288437783718, 16, 56 },
  { 95, 0.10894953086972237, 17, 50 },
  { 98, -0.002565896254964173, 18, 29 },
  { 140, -0.0034125306410714984, 19, 21 },
  { 121, 0.0022938530892133713, 20, 5 },
  { 65, 0.17962512251688167, 8, 5 },
  { 133, -0.009529326111078262, 22, 23 },
  { 153, 0.08571279048919678, 5, 8 },
  { 106, -0.0002513209474273026, 24, 26 },
  { 109, 0.0032791137346066535, 11, 25 },
  { -1, 1, -1, -1 },
  { 134, 0.06320633366703987, 27, 5 },
  { 91, 0.004972261725924909, 25, 28 },
  { 83, 0.026475703343749046, 11, 25 },
  { 62, -0.00963456742465496, 30, 33 },
  { 181, -0.024075543973594904, 31, 32 },
  { 92, 0.0582840871065855, 5, 8 },
  { 59, 0.001325701829046011, 25, 11 },
  { 45, 0.13831280171871185, 34, 48 },
  { 5, 0.14476816356182098, 35, 47 },
  { 11, -0.021012367215007544, 25, 36 },
  { 196, -0.049135081470012665, 8, 37 },
  { 45, -0.024162114597857, 25, 38 },
  { 74, -0.019225248135626316, 25, 39 },
  { 168, -0.012583811301738024, 40, 41 },
  { 172, 0.003784522879868746, 11, 8 },
  { 81, -0.002492860483471304, 42, 43 },
  { 4, 0.058610593900084496, 11, 25 },
  { 80, 0.11278491839766502, 44, 46 },
  { 196, 0.00025102682411670685, 45, 11 },
  { 10, 0.09211286902427673, 11, 25 },
  { 69, 0.06305952556431293, 25, 11 },
  { 51, 0.0979347713291645, 25, 11 },
  { 48, 0.3649943321943283, 49, 5 },
  { 100, 0.08696167171001434, 25, 5 },
  { 103, -0.008983116131275892, 5, 51 },
  { 128, 0.029609426856040955, 52, 54 },
  { 117, 0.02986055240035057, 25, 53 },
  { 96, 0.14955885708332062, 11, 25 },
  { 82, 0.16890396922826767, 55, 25 },
  { 34, 0.052263131365180016, 25, 11 },
  { 26, 0.06531168892979622, 57, 60 },
  { 91, 0.1858784407377243, 58, 5 },
  { 9, 0.08459839597344398, 59, 5 },
  { 71, -0.12692375108599663, 5, 8 },
  { 136, -0.08508000895380974, 8, 61 },
  { 23, 0.08999056741595268, 62, 5 },
  { 149, 0.07841835916042328, 11, 5 },
  { 50, 0.06316427700221539, 64, 71 },
  { 76, -0.10760191828012466, 65, 67 },
  { 61, -0.1280851885676384, 5, 66 },
  { 68, -0.11876491457223892, 8, 5 },
  { 48, -0.11865057796239853, 5, 68 },
  { 77, 0.07749604433774948, 69, 5 },
  { 159, 0.0005200454033911228, 11, 70 },
  { 18, 0.23842421174049377, 8, 5 },
  { 172, 0.02746421843767166, 72, 74 },
  { 174, 0.02316515427082777, 73, 25 },
  { 143, -0.019170645624399185, 8, 5 },
  { 49, 0.06726598739624023, 75, 5 },
  { 56, 0.04759875871241093, 8, 5 },
  { 115, -0.007145904004573822, 77, 97 },
  { 37, 0.08742069080471992, 78, 92 },
  { 79, 0.06418339535593987, 79, 87 },
  { 0, -0.0907517559826374, 5, 80 },
  { 6, 0.13035091012716293, 81, 5 },
  { 19, -0.07026763632893562, 5, 82 },
  { 116, -0.009077750146389008, 83, 85 },
  { 118, -0.0031047691591084003, 8, 84 },
  { 84, 0.0320998253300786, 8, 11 },
  { 147, 0.05069497087970376, 86, 8 },
  { 146, -0.02226421283558011, 8, 11 },
  { 183, -0.1337886042892933, 8, 88 },
  { 154, -0.09601584449410439, 8, 89 },
  { 117, -0.005038152914494276, 5, 90 },
  { 130, 0.04137108474969864, 91, 5 },
  { 139, -0.005548334331251681, 8, 25 },
  { 147, -0.10180944576859474, 93, 95 },
  { 24, 0.15096931159496307, 94, 5 },
  { 187, 0.0034720925614237785, 5, 8 },
  { 136, -0.13596610724925995, 96, 5 },
  { 95, -0.022838395088911057, 5, 8 },
  { 109, 0.040107471868395805, 98, 151 },
  { 2, 0.11756135523319244, 99, 145 },
  { 93, 0.10591411963105202, 100, 136 },
  { 48, -0.0006337158265523612, 101, 108 },
  { 145, 0.032609363086521626, 102, 107 },
  { 195, 0.03852903097867966, 103, 106 },
  { 46, -0.02083474863320589, 25, 104 },
  { 35, 0.005573976086452603, 105, 11 },
  { 152, -0.037948483135551214, 8, 25 },
  { 71, 0.08759060967713594, 8, 5 },
  { 62, -0.14358488470315933, 5, 8 },
  { 97, 0.0006421407451853156, 109, 116 },
  { 167, 0.04191386140882969, 110, 115 },
  { 160, -0.01597596751525998, 111, 112 },
  { 100, 0.01571040879935026, 5, 8 },
  { 106, 2.5262124836444855e-08, 113, 114 },
  { 131, 0.0079928794875741, 11, 25 },
  { 78, 0.25203924626111984, 25, 5 },
  { 98, -0.03603517822921276, 5, 8 },
  { 60, 0.14844583719968796, 117, 134 },
  { 161, -0.011370850261300802, 118, 121 },
  { 72, 0.030263446271419525, 119, 120 },
  { 157, 0.00502589694224298, 11, 8 },
  { 167, -0.005319300573319197, 8, 11 },
  { 192, -0.02903412375599146, 8, 122 },
  { 178, 0.03705397993326187, 123, 8 },
  { 196, -0.025241682305932045, 8, 124 },
  { 4, -0.043873097747564316, 25, 125 },
  { 66, -0.02052908670157194, 25, 126 },
  { 183, -0.006794528570026159, 127, 128 },
  { 108, -0.012066596187651157, 8, 11 },
  { 14, 0.11476290598511696, 129, 133 },
  { 62, 0.1037227213382721, 130, 132 },
  { 124, -0.006020339904353023, 131, 11 },
  { 174, 0.006769301136955619, 11, 8 },
  { 156, 0.0065412146504968405, 25, 11 },
  { 14, 0.11797279492020607, 25, 11 },
  { 110, 0.03071423340588808, 135, 11 },
  { 117, 0.03289533779025078, 25, 5 },
  { 103, 0.030167351476848125, 137, 144 },
  { 175, -0.014735439559444785, 138, 139 },
  { 39, -0.00503738597035408, 8, 5 },
  { 196, -0.002262511756271124, 11, 140 },
  { 113, 0.032837893813848495, 141, 11 },
  { 90, 0.1219903938472271, 142, 25 },
  { 20, 0.060606492683291435, 25, 143 },
  { 74, 0.11429520323872566, 11, 25 },
  { 151, 0.025753097608685493, 5, 11 },
  { 141, 0.05189525708556175, 146, 5 },
  { 170, -0.0068542733788490295, 5, 147 },
  { 188, 0.026619870215654373, 148, 149 },
  { 141, -0.033418294857256114, 5, 25 },
  { 19, 0.116547841578722, 150, 25 },
  { 137, 0.02639609668403864, 25, 11 },
  { 86, 0.0876983255147934, 152, 157 },
  { 0, 0.09442532435059547, 153, 5 },
  { 50, 0.11390849947929382, 154, 156 },
  { 13, 0.24260731786489487, 155, 5 },
  { 30, -0.1250954046845436, 5, 8 },
  { 14, 0.23850250244140625, 5, 25 },
  { 187, -0.13898058980703354, 5, 158 },
  { 33, 0.051707673817873, 5, 159 },
  { 30, 0.055834049358963966, 8, 5 },
  { 188, -0.006537009030580521, 161, 180 },
  { 28, 0.07131220772862434, 162, 178 },
  { 90, 0.09703664109110832, 163, 175 },
  { 86, -0.09330017119646072, 164, 166 },
  { 80, -0.07968663424253464, 5, 165 },
  { 99, -0.12738660722970963, 5, 25 },
  { 29, -0.12370415031909943, 167, 168 },
  { 169, -0.15165095403790474, 8, 5 },
  { 70, -0.11482958123087883, 5, 169 },
  { 189, -0.012637072242796421, 170, 172 },
  { 88, 0.1574142724275589, 171, 5 },
  { 97, 0.1101357489824295, 8, 5 },
  { 110, 0.013788793236017227, 173, 8 },
  { 110, -0.02689929958432913, 8, 174 },
  { 42, -0.023662199033424258, 25, 11 },
  { 174, -0.15906335413455963, 8, 176 },
  { 184, -0.14248838275671005, 177, 5 },
  { 137, 0.05667740432545543, 5, 8 },
  { 124, -0.1105520986020565, 179, 5 },
  { 70, -0.09609651751816273, 5, 8 },
  { 177, 0.04061163775622845, 181, 229 },
  { 74, 0.11579953506588936, 182, 220 },
  { 75, 0.0006352647324092686, 183, 194 },
  { 194, 0.037258245050907135, 184, 192 },
  { 109, -0.009209539042785764, 185, 186 },
  { 12, 0.02437447989359498, 8, 5 },
  { 67, -0.005817192839458585, 187, 189 },
  { 133, -0.025111738359555602, 5, 188 },
  { 17, 0.4034503102302551, 25, 5 },
  { 9, 0.0648067407310009, 190, 25 },
  { 155, 0.002010259893722832, 25, 191 },
  { 74, -0.07453432586044073, 5, 11 },
  { 72, -0.09336968138813972, 5, 193 },
  { 152, -0.04880967829376459, 8, 5 },
  { 24, 0.12164242938160896, 195, 217 },
  { 10, -0.008278773631900549, 196, 197 },
  { 164, -0.019302975619211793, 8, 25 },
  { 156, -0.019212685525417328, 198, 199 },
  { 56, -0.05297450069338083, 5, 8 },
  { 99, -0.020733202807605267, 25, 200 },
  { 95, 0.1439388245344162, 201, 216 },
  { 61, -0.0032106332946568727, 202, 204 },
  { 30, 0.032815491780638695, 203, 8 },
  { 102, 0.005746829556301236, 25, 11 },
  { 32, -0.043479543179273605, 25, 205 },
  { 21, 0.12238431349396706, 206, 25 },
  { 82, -0.022695002146065235, 25, 207 },
  { 6, 0.14419956505298615, 208, 25 },
  { 100, -0.009788133203983307, 209, 210 },
  { 0, 0.0659616980701685, 11, 8 },
  { 85, 0.09916476160287857, 211, 213 },
  { 157, -0.0012556278961710632, 212, 11 },
  { 17, 0.08905680850148201, 11, 25 },
  { 137, 0.014906816184520721, 214, 11 },
  { 83, 0.10670886933803558, 11, 215 },
  { 186, 0.0012548514059744775, 11, 25 },
  { 63, 0.08280996233224869, 25, 11 },
  { 166, -0.007550123846158385, 5, 218 },
  { 190, 0.030227042734622955, 219, 11 },
  { 126, -0.03883734834380448, 5, 25 },
  { 127, 0.039745694026350975, 221, 5 },
  { 147, -0.0030241425847634673, 5, 222 },
  { 105, 0.03750097379088402, 223, 11 },
  { 125, -0.02394221443682909, 5, 224 },
  { 69, 0.08932293578982353, 11, 225 },
  { 80, 0.13135062158107758, 226, 25 },
  { 62, 0.10416056215763092, 227, 228 },
  { 86, 0.14672808349132538, 11, 25 },
  { 198, 0.030171879567205906, 25, 11 },
  { 52, 0.06106766127049923, 230, 238 },
  { 16, 0.11842364817857742, 231, 5 },
  { 32, -0.10158684477210045, 232, 233 },
  { 184, 0.04177410528063774, 25, 5 },
  { 69, -0.17705026268959045, 5, 234 },
  { 141, -0.22994069755077362, 5, 235 },
  { 95, 0.3230690732598305, 236, 5 },
  { 172, 0.005693831481039524, 237, 8 },
  { 169, -0.06129888806026429, 8, 11 },
  { 137, -0.11652782931923866, 239, 241 },
  { 15, -0.04030647926265374, 5, 240 },
  { 128, -0.14997423440217972, 5, 8 },
  { 187, 0.07767278328537941, 242, 5 },
  { 175, 0.04029874876141548, 25, 5 },
  { 149, -0.00985755305737257, 244, 258 },
  { 76, 0.08574715256690979, 245, 255 },
  { 56, 0.11874345690011978, 246, 5 },
  { 95, 0.10441715642809868, 247, 254 },
  { 55, -0.06752470880746841, 248, 249 },
  { 11, 0.05371927656233311, 25, 5 },
  { 83, -0.13310347124934196, 5, 250 },
  { 94, 0.05860530398786068, 251, 253 },
  { 13, 0.05226716585457325, 8, 252 },
  { 184, 0.00826881651300937, 11, 8 },
  { 92, 0.04911474697291851, 11, 8 },
  { 97, 0.11197299882769585, 5, 5 },
  { 187, -0.11725787818431854, 256, 5 },
  { 42, 0.09638761542737484, 257, 5 },
  { 130, 0.010873388033360243, 5, 8 },
  { 101, -0.01162715908139944, 259, 270 },
  { 40, 0.0744686909019947, 260, 269 },
  { 89, 0.09285181760787964, 261, 268 },
  { 53, -0.15121114999055862, 5, 262 },
  { 70, 0.0720679946243763, 263, 267 },
  { 51, 0.04150652885437012, 264, 266 },
  { 55, 0.03930492140352726, 8, 265 },
  { 101, -0.019678475335240364, 8, 11 },
  { 158, 0.03541656490415335, 11, 8 },
  { 67, 0.0845240019261837, 11, 5 },
  { 149, -0.005764433182775974, 8, 5 },
  { 190, 0.238768070936203, 5, 8 },
  { 93, 0.1081962138414383, 271, 307 },
  { 79, 0.005137046566233039, 272, 287 },
  { 192, -0.007849611341953278, 273, 275 },
  { 72, -0.06145857647061348, 5, 274 },
  { 58, 0.11499986797571182, 8, 5 },
  { 161, 0.04831313341856003, 276, 286 },
  { 130, 0.06989685632288456, 277, 285 },
  { 170, 0.0322225634008646, 278, 284 },
  { 78, 0.0037075825966894627, 279, 283 },
  { 169, 0.028624549508094788, 280, 281 },
  { 175, 0.030764374881982803, 25, 11 },
  { 92, 0.005279465578496456, 25, 282 },
  { 69, -0.05373357411008328, 25, 11 },
  { 96, -0.012807782739400864, 25, 11 },
  { 43, -0.0014418736100196838, 5, 11 },
  { 120, 0.21124807745218277, 5, 8 },
  { 56, 0.06465374305844307, 8, 5 },
  { 47, 0.13914447277784348, 288, 304 },
  { 125, 0.036260951310396194, 289, 303 },
  { 20, -0.010114147095009685, 290, 291 },
  { 97, -0.11865738732740283, 5, 25 },
  { 0, 0.13907084614038467, 292, 302 },
  { 127, -0.04890890046954155, 8, 293 },
  { 12, -0.020538917742669582, 25, 294 },
  { 59, -0.017291243188083172, 25, 295 },
  { 186, 0.10704281739890575, 296, 8 },
  { 5, 0.12570906430482864, 297, 301 },
  { 124, 0.034651316702365875, 298, 300 },
  { 106, -0.003268931759521365, 299, 11 },
  { 54, 0.08525758609175682, 11, 25 },
  { 131, 0.03364855423569679, 25, 11 },
  { 77, 0.07243017293512821, 25, 11 },
  { 119, -0.009173008787911385, 8, 25 },
  { 7, 0.06816800311207771, 8, 5 },
  { 172, 0.04641825146973133, 305, 5 },
  { 74, 0.4240109771490097, 306, 5 },
  { 54, 0.12833968549966812, 11, 25 },
  { 110, 0.03223451413214207, 308, 5 },
  { 158, 0.053037477657198906, 309, 5 },
  { 171, -0.06830021180212498, 5, 310 },
  { 121, 0.03138144314289093, 311, 315 },
  { 170, -0.0035228116903454065, 11, 312 },
  { 108, 0.03214212879538536, 313, 11 },
  { 123, 0.030984208919107914, 25, 314 },
  { 101, 0.02773045375943184, 25, 11 },
  { 48, 0.16692662239074707, 316, 25 },
  { 131, 0.025512888096272945, 25, 11 },
  { 121, -0.010066729038953781, 318, 331 },
  { 51, 0.08383949100971222, 319, 326 },
  { 28, 0.10075145587325096, 320, 324 },
  { 80, 0.06996002420783043, 321, 5 },
  { 77, -0.1482061967253685, 5, 322 },
  { 86, -0.2149161957204342, 5, 323 },
  { 57, 0.07934682071208954, 8, 11 },
  { 59, -0.011149927973747253, 5, 325 },
  { 136, 0.03381602559238672, 5, 8 },
  { 162, -0.04372486099600792, 327, 329 },
  { 54, 0.10580530017614365, 328, 5 },
  { 72, 0.010313003323972225, 5, 8 },
  { 48, 0.094539325684309, 330, 5 },
  { 75, 0.10905935987830162, 11, 5 },
  { 123, 0.03904029540717602, 332, 386 },
  { 95, 0.1072947047650814, 333, 377 },
  { 3, 0.11354989558458328, 334, 366 },
  { 52, 0.13641434907913208, 335, 360 },
  { 46, -0.008388654794543982, 336, 343 },
  { 64, -0.03051798138767481, 337, 339 },
  { 105, -0.02033710153773427, 8, 338 },
  { 166, -0.0623198002576828, 8, 25 },
  { 40, -0.050980767235159874, 340, 341 },
  { 166, 0.021844140719622374, 25, 5 },
  { 77, 0.08813183009624481, 342, 11 },
  { 98, 0.08653709292411804, 8, 25 },
  { 142, -0.030523402616381645, 8, 344 },
  { 95, -0.009637003298848867, 345, 347 },
  { 141, 0.03728748857975006, 25, 346 },
  { 137, 0.015994867542758584, 8, 5 },
  { 143, 0.05940340459346771, 348, 359 },
  { 14, -0.02222641627304256, 25, 349 },
  { 11, 0.11433692276477814, 350, 358 },
  { 76, -0.013623856008052826, 25, 351 },
  { 16, 0.10004692152142525, 352, 356 },
  { 105, -0.004014539532363415, 353, 354 },
  { 124, 0.008521050680428743, 11, 8 },
  { 14, 0.09884686395525932, 11, 355 },
  { 48, 0.04678545892238617, 25, 11 },
  { 14, 0.09280570596456528, 357, 11 },
  { 125, 0.019719231873750687, 25, 11 },
  { 185, 0.027056392282247543, 25, 11 },
  { 93, 0.17117256298661232, 8, 5 },
  { 14, -0.1380811370909214, 361, 363 },
  { 177, 0.03543534688651562, 362, 5 },
  { 127, 0.013785997405648232, 5, 25 },
  { 42, 0.40195636451244354, 364, 5 },
  { 48, 0.139787495136261, 365, 25 },
  { 156, -0.022771956399083138, 5, 11 },
  { 100, 0.00023640133440494537, 367, 368 },
  { 104, 0.021678272169083357, 5, 11 },
  { 139, -0.023901043110527098, 5, 369 },
  { 187, 0.030720820650458336, 370, 375 },
  { 11, 0.4297793060541153, 371, 5 },
  { 92, 0.08679371699690819, 372, 374 },
  { 4, 0.11591078713536263, 373, 25 },
  { 83, 0.036764174699783325, 25, 11 },
  { 15, 0.13696857169270515, 11, 25 },
  { 94, 0.06536274030804634, 376, 11 },
  { 169, 0.09111618995666504, 25, 8 },
  { 142, -0.005931079620495439, 5, 378 },
  { 133, 0.03494139760732651, 379, 384 },
  { 123, 0.026527422480285168, 380, 381 },
  { 121, 0.033353472128510475, 25, 11 },
  { 105, 0.02958302665501833, 382, 383 },
  { 164, 0.011190455872565508, 5, 25 },
  { 6, 0.12578188255429268, 11, 25 },
  { 17, -0.3162366598844528, 25, 385 },
  { 61, 0.039047762751579285, 5, 8 },
  { 7, 0.07069869711995125, 387, 392 },
  { 77, 0.09672711417078972, 388, 5 },
  { 81, -0.09582200273871422, 5, 389 },
  { 62, 0.09688984602689743, 390, 391 },
  { 83, 0.1010456271469593, 8, 5 },
  { 121, 0.0442179711535573, 11, 5 },
  { 125, 0.04159385338425636, 393, 395 },
  { 174, 0.007749649230390787, 5, 394 },
  { 37, 0.09777182713150978, 11, 25 },
  { 197, -0.0927979163825512, 396, 5 },
  { 194, -0.08835087344050407, 5, 5 } 
};

int32_t random_forest_postural_sway_100_tree_roots[5] = { 0, 76, 160, 243, 317 };

EmlTrees random_forest_postural_sway_100 = {
        397,
        random_forest_postural_sway_100_nodes,	  
        5,
        random_forest_postural_sway_100_tree_roots,
    };

static inline int32_t random_forest_postural_sway_100_predict_tree_0(const float *features, int32_t features_length) {
          if (features[156] < -0.008559809066355228) {
              if (features[59] < 0.10409733280539513) {
                  if (features[89] < 0.10781921446323395) {
                      if (features[8] < 0.09029636532068253) {
                          if (features[34] < -0.14523257315158844) {
                              return 3;
                          } else {
                              if (features[158] < -0.009067196398973465) {
                                  if (features[40] < 0.2243654951453209) {
                                      return 2;
                                  } else {
                                      return 3;
                                  }
                              } else {
                                  if (features[181] < 0.02421722747385502) {
                                      if (features[54] < 0.040425559505820274) {
                                          return 0;
                                      } else {
                                          return 2;
                                      }
                                  } else {
                                      return 2;
                                  }
                              }
                          }
                      } else {
                          if (features[162] < 0.0026104161515831947) {
                              return 3;
                          } else {
                              return 2;
                          }
                      }
                  } else {
                      if (features[92] < -0.018125133123248816) {
                          return 2;
                      } else {
                          return 3;
                      }
                  }
              } else {
                  return 3;
              }
          } else {
              if (features[168] < 0.03955034352838993) {
                  if (features[143] < 0.04612288437783718) {
                      if (features[95] < 0.10894953086972237) {
                          if (features[98] < -0.002565896254964173) {
                              if (features[140] < -0.0034125306410714984) {
                                  if (features[121] < 0.0022938530892133713) {
                                      if (features[65] < 0.17962512251688167) {
                                          return 2;
                                      } else {
                                          return 3;
                                      }
                                  } else {
                                      return 3;
                                  }
                              } else {
                                  if (features[133] < -0.009529326111078262) {
                                      if (features[153] < 0.08571279048919678) {
                                          return 3;
                                      } else {
                                          return 2;
                                      }
                                  } else {
                                      if (features[106] < -0.0002513209474273026) {
                                          if (features[109] < 0.0032791137346066535) {
                                              return 0;
                                          } else {
                                              return 1;
                                          }
                                      } else {
                                          if (features[134] < 0.06320633366703987) {
                                              if (features[91] < 0.004972261725924909) {
                                                  return 1;
                                              } else {
                                                  if (features[83] < 0.026475703343749046) {
                                                      return 0;
                                                  } else {
                                                      return 1;
                                                  }
                                              }
                                          } else {
                                              return 3;
                                          }
                                      }
                                  }
                              }
                          } else {
                              if (features[62] < -0.00963456742465496) {
                                  if (features[181] < -0.024075543973594904) {
                                      if (features[92] < 0.0582840871065855) {
                                          return 3;
                                      } else {
                                          return 2;
                                      }
                                  } else {
                                      if (features[59] < 0.001325701829046011) {
                                          return 1;
                                      } else {
                                          return 0;
                                      }
                                  }
                              } else {
                                  if (features[45] < 0.13831280171871185) {
                                      if (features[5] < 0.14476816356182098) {
                                          if (features[11] < -0.021012367215007544) {
                                              return 1;
                                          } else {
                                              if (features[196] < -0.049135081470012665) {
                                                  return 2;
                                              } else {
                                                  if (features[45] < -0.024162114597857) {
                                                      return 1;
                                                  } else {
                                                      if (features[74] < -0.019225248135626316) {
                                                          return 1;
                                                      } else {
                                                          if (features[168] < -0.012583811301738024) {
                                                              if (features[172] < 0.003784522879868746) {
                                                                  return 0;
                                                              } else {
                                                                  return 2;
                                                              }
                                                          } else {
                                                              if (features[81] < -0.002492860483471304) {
                                                                  if (features[4] < 0.058610593900084496) {
                                                                      return 0;
                                                                  } else {
                                                                      return 1;
                                                                  }
                                                              } else {
                                                                  if (features[80] < 0.11278491839766502) {
                                                                      if (features[196] < 0.00025102682411670685) {
                                                                          if (features[10] < 0.09211286902427673) {
                                                                              return 0;
                                                                          } else {
                                                                              return 1;
                                                                          }
                                                                      } else {
                                                                          return 0;
                                                                      }
                                                                  } else {
                                                                      if (features[69] < 0.06305952556431293) {
                                                                          return 1;
                                                                      } else {
                                                                          return 0;
                                                                      }
                                                                  }
                                                              }
                                                          }
                                                      }
                                                  }
                                              }
                                          }
                                      } else {
                                          if (features[51] < 0.0979347713291645) {
                                              return 1;
                                          } else {
                                              return 0;
                                          }
                                      }
                                  } else {
                                      if (features[48] < 0.3649943321943283) {
                                          if (features[100] < 0.08696167171001434) {
                                              return 1;
                                          } else {
                                              return 3;
                                          }
                                      } else {
                                          return 3;
                                      }
                                  }
                              }
                          }
                      } else {
                          if (features[103] < -0.008983116131275892) {
                              return 3;
                          } else {
                              if (features[128] < 0.029609426856040955) {
                                  if (features[117] < 0.02986055240035057) {
                                      return 1;
                                  } else {
                                      if (features[96] < 0.14955885708332062) {
                                          return 0;
                                      } else {
                                          return 1;
                                      }
                                  }
                              } else {
                                  if (features[82] < 0.16890396922826767) {
                                      if (features[34] < 0.052263131365180016) {
                                          return 1;
                                      } else {
                                          return 0;
                                      }
                                  } else {
                                      return 1;
                                  }
                              }
                          }
                      }
                  } else {
                      if (features[26] < 0.06531168892979622) {
                          if (features[91] < 0.1858784407377243) {
                              if (features[9] < 0.08459839597344398) {
                                  if (features[71] < -0.12692375108599663) {
                                      return 3;
                                  } else {
                                      return 2;
                                  }
                              } else {
                                  return 3;
                              }
                          } else {
                              return 3;
                          }
                      } else {
                          if (features[136] < -0.08508000895380974) {
                              return 2;
                          } else {
                              if (features[23] < 0.08999056741595268) {
                                  if (features[149] < 0.07841835916042328) {
                                      return 0;
                                  } else {
                                      return 3;
                                  }
                              } else {
                                  return 3;
                              }
                          }
                      }
                  }
              } else {
                  if (features[50] < 0.06316427700221539) {
                      if (features[76] < -0.10760191828012466) {
                          if (features[61] < -0.1280851885676384) {
                              return 3;
                          } else {
                              if (features[68] < -0.11876491457223892) {
                                  return 2;
                              } else {
                                  return 3;
                              }
                          }
                      } else {
                          if (features[48] < -0.11865057796239853) {
                              return 3;
                          } else {
                              if (features[77] < 0.07749604433774948) {
                                  if (features[159] < 0.0005200454033911228) {
                                      return 0;
                                  } else {
                                      if (features[18] < 0.23842421174049377) {
                                          return 2;
                                      } else {
                                          return 3;
                                      }
                                  }
                              } else {
                                  return 3;
                              }
                          }
                      }
                  } else {
                      if (features[172] < 0.02746421843767166) {
                          if (features[174] < 0.02316515427082777) {
                              if (features[143] < -0.019170645624399185) {
                                  return 2;
                              } else {
                                  return 3;
                              }
                          } else {
                              return 1;
                          }
                      } else {
                          if (features[49] < 0.06726598739624023) {
                              if (features[56] < 0.04759875871241093) {
                                  return 2;
                              } else {
                                  return 3;
                              }
                          } else {
                              return 3;
                          }
                      }
                  }
              }
          }
        }
        

static inline int32_t random_forest_postural_sway_100_predict_tree_1(const float *features, int32_t features_length) {
          if (features[115] < -0.007145904004573822) {
              if (features[37] < 0.08742069080471992) {
                  if (features[79] < 0.06418339535593987) {
                      if (features[0] < -0.0907517559826374) {
                          return 3;
                      } else {
                          if (features[6] < 0.13035091012716293) {
                              if (features[19] < -0.07026763632893562) {
                                  return 3;
                              } else {
                                  if (features[116] < -0.009077750146389008) {
                                      if (features[118] < -0.0031047691591084003) {
                                          return 2;
                                      } else {
                                          if (features[84] < 0.0320998253300786) {
                                              return 2;
                                          } else {
                                              return 0;
                                          }
                                      }
                                  } else {
                                      if (features[147] < 0.05069497087970376) {
                                          if (features[146] < -0.02226421283558011) {
                                              return 2;
                                          } else {
                                              return 0;
                                          }
                                      } else {
                                          return 2;
                                      }
                                  }
                              }
                          } else {
                              return 3;
                          }
                      }
                  } else {
                      if (features[183] < -0.1337886042892933) {
                          return 2;
                      } else {
                          if (features[154] < -0.09601584449410439) {
                              return 2;
                          } else {
                              if (features[117] < -0.005038152914494276) {
                                  return 3;
                              } else {
                                  if (features[130] < 0.04137108474969864) {
                                      if (features[139] < -0.005548334331251681) {
                                          return 2;
                                      } else {
                                          return 1;
                                      }
                                  } else {
                                      return 3;
                                  }
                              }
                          }
                      }
                  }
              } else {
                  if (features[147] < -0.10180944576859474) {
                      if (features[24] < 0.15096931159496307) {
                          if (features[187] < 0.0034720925614237785) {
                              return 3;
                          } else {
                              return 2;
                          }
                      } else {
                          return 3;
                      }
                  } else {
                      if (features[136] < -0.13596610724925995) {
                          if (features[95] < -0.022838395088911057) {
                              return 3;
                          } else {
                              return 2;
                          }
                      } else {
                          return 3;
                      }
                  }
              }
          } else {
              if (features[109] < 0.040107471868395805) {
                  if (features[2] < 0.11756135523319244) {
                      if (features[93] < 0.10591411963105202) {
                          if (features[48] < -0.0006337158265523612) {
                              if (features[145] < 0.032609363086521626) {
                                  if (features[195] < 0.03852903097867966) {
                                      if (features[46] < -0.02083474863320589) {
                                          return 1;
                                      } else {
                                          if (features[35] < 0.005573976086452603) {
                                              if (features[152] < -0.037948483135551214) {
                                                  return 2;
                                              } else {
                                                  return 1;
                                              }
                                          } else {
                                              return 0;
                                          }
                                      }
                                  } else {
                                      if (features[71] < 0.08759060967713594) {
                                          return 2;
                                      } else {
                                          return 3;
                                      }
                                  }
                              } else {
                                  if (features[62] < -0.14358488470315933) {
                                      return 3;
                                  } else {
                                      return 2;
                                  }
                              }
                          } else {
                              if (features[97] < 0.0006421407451853156) {
                                  if (features[167] < 0.04191386140882969) {
                                      if (features[160] < -0.01597596751525998) {
                                          if (features[100] < 0.01571040879935026) {
                                              return 3;
                                          } else {
                                              return 2;
                                          }
                                      } else {
                                          if (features[106] < 2.5262124836444855e-08) {
                                              if (features[131] < 0.0079928794875741) {
                                                  return 0;
                                              } else {
                                                  return 1;
                                              }
                                          } else {
                                              if (features[78] < 0.25203924626111984) {
                                                  return 1;
                                              } else {
                                                  return 3;
                                              }
                                          }
                                      }
                                  } else {
                                      if (features[98] < -0.03603517822921276) {
                                          return 3;
                                      } else {
                                          return 2;
                                      }
                                  }
                              } else {
                                  if (features[60] < 0.14844583719968796) {
                                      if (features[161] < -0.011370850261300802) {
                                          if (features[72] < 0.030263446271419525) {
                                              if (features[157] < 0.00502589694224298) {
                                                  return 0;
                                              } else {
                                                  return 2;
                                              }
                                          } else {
                                              if (features[167] < -0.005319300573319197) {
                                                  return 2;
                                              } else {
                                                  return 0;
                                              }
                                          }
                                      } else {
                                          if (features[192] < -0.02903412375599146) {
                                              return 2;
                                          } else {
                                              if (features[178] < 0.03705397993326187) {
                                                  if (features[196] < -0.025241682305932045) {
                                                      return 2;
                                                  } else {
                                                      if (features[4] < -0.043873097747564316) {
                                                          return 1;
                                                      } else {
                                                          if (features[66] < -0.02052908670157194) {
                                                              return 1;
                                                          } else {
                                                              if (features[183] < -0.006794528570026159) {
                                                                  if (features[108] < -0.012066596187651157) {
                                                                      return 2;
                                                                  } else {
                                                                      return 0;
                                                                  }
                                                              } else {
                                                                  if (features[14] < 0.11476290598511696) {
                                                                      if (features[62] < 0.1037227213382721) {
                                                                          if (features[124] < -0.006020339904353023) {
                                                                              if (features[174] < 0.006769301136955619) {
                                                                                  return 0;
                                                                              } else {
                                                                                  return 2;
                                                                              }
                                                                          } else {
                                                                              return 0;
                                                                          }
                                                                      } else {
                                                                          if (features[156] < 0.0065412146504968405) {
                                                                              return 1;
                                                                          } else {
                                                                              return 0;
                                                                          }
                                                                      }
                                                                  } else {
                                                                      if (features[14] < 0.11797279492020607) {
                                                                          return 1;
                                                                      } else {
                                                                          return 0;
                                                                      }
                                                                  }
                                                              }
                                                          }
                                                      }
                                                  }
                                              } else {
                                                  return 2;
                                              }
                                          }
                                      }
                                  } else {
                                      if (features[110] < 0.03071423340588808) {
                                          if (features[117] < 0.03289533779025078) {
                                              return 1;
                                          } else {
                                              return 3;
                                          }
                                      } else {
                                          return 0;
                                      }
                                  }
                              }
                          }
                      } else {
                          if (features[103] < 0.030167351476848125) {
                              if (features[175] < -0.014735439559444785) {
                                  if (features[39] < -0.00503738597035408) {
                                      return 2;
                                  } else {
                                      return 3;
                                  }
                              } else {
                                  if (features[196] < -0.002262511756271124) {
                                      return 0;
                                  } else {
                                      if (features[113] < 0.032837893813848495) {
                                          if (features[90] < 0.1219903938472271) {
                                              if (features[20] < 0.060606492683291435) {
                                                  return 1;
                                              } else {
                                                  if (features[74] < 0.11429520323872566) {
                                                      return 0;
                                                  } else {
                                                      return 1;
                                                  }
                                              }
                                          } else {
                                              return 1;
                                          }
                                      } else {
                                          return 0;
                                      }
                                  }
                              }
                          } else {
                              if (features[151] < 0.025753097608685493) {
                                  return 3;
                              } else {
                                  return 0;
                              }
                          }
                      }
                  } else {
                      if (features[141] < 0.05189525708556175) {
                          if (features[170] < -0.0068542733788490295) {
                              return 3;
                          } else {
                              if (features[188] < 0.026619870215654373) {
                                  if (features[141] < -0.033418294857256114) {
                                      return 3;
                                  } else {
                                      return 1;
                                  }
                              } else {
                                  if (features[19] < 0.116547841578722) {
                                      if (features[137] < 0.02639609668403864) {
                                          return 1;
                                      } else {
                                          return 0;
                                      }
                                  } else {
                                      return 1;
                                  }
                              }
                          }
                      } else {
                          return 3;
                      }
                  }
              } else {
                  if (features[86] < 0.0876983255147934) {
                      if (features[0] < 0.09442532435059547) {
                          if (features[50] < 0.11390849947929382) {
                              if (features[13] < 0.24260731786489487) {
                                  if (features[30] < -0.1250954046845436) {
                                      return 3;
                                  } else {
                                      return 2;
                                  }
                              } else {
                                  return 3;
                              }
                          } else {
                              if (features[14] < 0.23850250244140625) {
                                  return 3;
                              } else {
                                  return 1;
                              }
                          }
                      } else {
                          return 3;
                      }
                  } else {
                      if (features[187] < -0.13898058980703354) {
                          return 3;
                      } else {
                          if (features[33] < 0.051707673817873) {
                              return 3;
                          } else {
                              if (features[30] < 0.055834049358963966) {
                                  return 2;
                              } else {
                                  return 3;
                              }
                          }
                      }
                  }
              }
          }
        }
        

static inline int32_t random_forest_postural_sway_100_predict_tree_2(const float *features, int32_t features_length) {
          if (features[188] < -0.006537009030580521) {
              if (features[28] < 0.07131220772862434) {
                  if (features[90] < 0.09703664109110832) {
                      if (features[86] < -0.09330017119646072) {
                          if (features[80] < -0.07968663424253464) {
                              return 3;
                          } else {
                              if (features[99] < -0.12738660722970963) {
                                  return 3;
                              } else {
                                  return 1;
                              }
                          }
                      } else {
                          if (features[29] < -0.12370415031909943) {
                              if (features[169] < -0.15165095403790474) {
                                  return 2;
                              } else {
                                  return 3;
                              }
                          } else {
                              if (features[70] < -0.11482958123087883) {
                                  return 3;
                              } else {
                                  if (features[189] < -0.012637072242796421) {
                                      if (features[88] < 0.1574142724275589) {
                                          if (features[97] < 0.1101357489824295) {
                                              return 2;
                                          } else {
                                              return 3;
                                          }
                                      } else {
                                          return 3;
                                      }
                                  } else {
                                      if (features[110] < 0.013788793236017227) {
                                          if (features[110] < -0.02689929958432913) {
                                              return 2;
                                          } else {
                                              if (features[42] < -0.023662199033424258) {
                                                  return 1;
                                              } else {
                                                  return 0;
                                              }
                                          }
                                      } else {
                                          return 2;
                                      }
                                  }
                              }
                          }
                      }
                  } else {
                      if (features[174] < -0.15906335413455963) {
                          return 2;
                      } else {
                          if (features[184] < -0.14248838275671005) {
                              if (features[137] < 0.05667740432545543) {
                                  return 3;
                              } else {
                                  return 2;
                              }
                          } else {
                              return 3;
                          }
                      }
                  }
              } else {
                  if (features[124] < -0.1105520986020565) {
                      if (features[70] < -0.09609651751816273) {
                          return 3;
                      } else {
                          return 2;
                      }
                  } else {
                      return 3;
                  }
              }
          } else {
              if (features[177] < 0.04061163775622845) {
                  if (features[74] < 0.11579953506588936) {
                      if (features[75] < 0.0006352647324092686) {
                          if (features[194] < 0.037258245050907135) {
                              if (features[109] < -0.009209539042785764) {
                                  if (features[12] < 0.02437447989359498) {
                                      return 2;
                                  } else {
                                      return 3;
                                  }
                              } else {
                                  if (features[67] < -0.005817192839458585) {
                                      if (features[133] < -0.025111738359555602) {
                                          return 3;
                                      } else {
                                          if (features[17] < 0.4034503102302551) {
                                              return 1;
                                          } else {
                                              return 3;
                                          }
                                      }
                                  } else {
                                      if (features[9] < 0.0648067407310009) {
                                          if (features[155] < 0.002010259893722832) {
                                              return 1;
                                          } else {
                                              if (features[74] < -0.07453432586044073) {
                                                  return 3;
                                              } else {
                                                  return 0;
                                              }
                                          }
                                      } else {
                                          return 1;
                                      }
                                  }
                              }
                          } else {
                              if (features[72] < -0.09336968138813972) {
                                  return 3;
                              } else {
                                  if (features[152] < -0.04880967829376459) {
                                      return 2;
                                  } else {
                                      return 3;
                                  }
                              }
                          }
                      } else {
                          if (features[24] < 0.12164242938160896) {
                              if (features[10] < -0.008278773631900549) {
                                  if (features[164] < -0.019302975619211793) {
                                      return 2;
                                  } else {
                                      return 1;
                                  }
                              } else {
                                  if (features[156] < -0.019212685525417328) {
                                      if (features[56] < -0.05297450069338083) {
                                          return 3;
                                      } else {
                                          return 2;
                                      }
                                  } else {
                                      if (features[99] < -0.020733202807605267) {
                                          return 1;
                                      } else {
                                          if (features[95] < 0.1439388245344162) {
                                              if (features[61] < -0.0032106332946568727) {
                                                  if (features[30] < 0.032815491780638695) {
                                                      if (features[102] < 0.005746829556301236) {
                                                          return 1;
                                                      } else {
                                                          return 0;
                                                      }
                                                  } else {
                                                      return 2;
                                                  }
                                              } else {
                                                  if (features[32] < -0.043479543179273605) {
                                                      return 1;
                                                  } else {
                                                      if (features[21] < 0.12238431349396706) {
                                                          if (features[82] < -0.022695002146065235) {
                                                              return 1;
                                                          } else {
                                                              if (features[6] < 0.14419956505298615) {
                                                                  if (features[100] < -0.009788133203983307) {
                                                                      if (features[0] < 0.0659616980701685) {
                                                                          return 0;
                                                                      } else {
                                                                          return 2;
                                                                      }
                                                                  } else {
                                                                      if (features[85] < 0.09916476160287857) {
                                                                          if (features[157] < -0.0012556278961710632) {
                                                                              if (features[17] < 0.08905680850148201) {
                                                                                  return 0;
                                                                              } else {
                                                                                  return 1;
                                                                              }
                                                                          } else {
                                                                              return 0;
                                                                          }
                                                                      } else {
                                                                          if (features[137] < 0.014906816184520721) {
                                                                              if (features[83] < 0.10670886933803558) {
                                                                                  return 0;
                                                                              } else {
                                                                                  if (features[186] < 0.0012548514059744775) {
                                                                                      return 0;
                                                                                  } else {
                                                                                      return 1;
                                                                                  }
                                                                              }
                                                                          } else {
                                                                              return 0;
                                                                          }
                                                                      }
                                                                  }
                                                              } else {
                                                                  return 1;
                                                              }
                                                          }
                                                      } else {
                                                          return 1;
                                                      }
                                                  }
                                              }
                                          } else {
                                              if (features[63] < 0.08280996233224869) {
                                                  return 1;
                                              } else {
                                                  return 0;
                                              }
                                          }
                                      }
                                  }
                              }
                          } else {
                              if (features[166] < -0.007550123846158385) {
                                  return 3;
                              } else {
                                  if (features[190] < 0.030227042734622955) {
                                      if (features[126] < -0.03883734834380448) {
                                          return 3;
                                      } else {
                                          return 1;
                                      }
                                  } else {
                                      return 0;
                                  }
                              }
                          }
                      }
                  } else {
                      if (features[127] < 0.039745694026350975) {
                          if (features[147] < -0.0030241425847634673) {
                              return 3;
                          } else {
                              if (features[105] < 0.03750097379088402) {
                                  if (features[125] < -0.02394221443682909) {
                                      return 3;
                                  } else {
                                      if (features[69] < 0.08932293578982353) {
                                          return 0;
                                      } else {
                                          if (features[80] < 0.13135062158107758) {
                                              if (features[62] < 0.10416056215763092) {
                                                  if (features[86] < 0.14672808349132538) {
                                                      return 0;
                                                  } else {
                                                      return 1;
                                                  }
                                              } else {
                                                  if (features[198] < 0.030171879567205906) {
                                                      return 1;
                                                  } else {
                                                      return 0;
                                                  }
                                              }
                                          } else {
                                              return 1;
                                          }
                                      }
                                  }
                              } else {
                                  return 0;
                              }
                          }
                      } else {
                          return 3;
                      }
                  }
              } else {
                  if (features[52] < 0.06106766127049923) {
                      if (features[16] < 0.11842364817857742) {
                          if (features[32] < -0.10158684477210045) {
                              if (features[184] < 0.04177410528063774) {
                                  return 1;
                              } else {
                                  return 3;
                              }
                          } else {
                              if (features[69] < -0.17705026268959045) {
                                  return 3;
                              } else {
                                  if (features[141] < -0.22994069755077362) {
                                      return 3;
                                  } else {
                                      if (features[95] < 0.3230690732598305) {
                                          if (features[172] < 0.005693831481039524) {
                                              if (features[169] < -0.06129888806026429) {
                                                  return 2;
                                              } else {
                                                  return 0;
                                              }
                                          } else {
                                              return 2;
                                          }
                                      } else {
                                          return 3;
                                      }
                                  }
                              }
                          }
                      } else {
                          return 3;
                      }
                  } else {
                      if (features[137] < -0.11652782931923866) {
                          if (features[15] < -0.04030647926265374) {
                              return 3;
                          } else {
                              if (features[128] < -0.14997423440217972) {
                                  return 3;
                              } else {
                                  return 2;
                              }
                          }
                      } else {
                          if (features[187] < 0.07767278328537941) {
                              if (features[175] < 0.04029874876141548) {
                                  return 1;
                              } else {
                                  return 3;
                              }
                          } else {
                              return 3;
                          }
                      }
                  }
              }
          }
        }
        

static inline int32_t random_forest_postural_sway_100_predict_tree_3(const float *features, int32_t features_length) {
          if (features[149] < -0.00985755305737257) {
              if (features[76] < 0.08574715256690979) {
                  if (features[56] < 0.11874345690011978) {
                      if (features[95] < 0.10441715642809868) {
                          if (features[55] < -0.06752470880746841) {
                              if (features[11] < 0.05371927656233311) {
                                  return 1;
                              } else {
                                  return 3;
                              }
                          } else {
                              if (features[83] < -0.13310347124934196) {
                                  return 3;
                              } else {
                                  if (features[94] < 0.05860530398786068) {
                                      if (features[13] < 0.05226716585457325) {
                                          return 2;
                                      } else {
                                          if (features[184] < 0.00826881651300937) {
                                              return 0;
                                          } else {
                                              return 2;
                                          }
                                      }
                                  } else {
                                      if (features[92] < 0.04911474697291851) {
                                          return 0;
                                      } else {
                                          return 2;
                                      }
                                  }
                              }
                          }
                      } else {
                          if (features[97] < 0.11197299882769585) {
                              return 3;
                          } else {
                              return 3;
                          }
                      }
                  } else {
                      return 3;
                  }
              } else {
                  if (features[187] < -0.11725787818431854) {
                      if (features[42] < 0.09638761542737484) {
                          if (features[130] < 0.010873388033360243) {
                              return 3;
                          } else {
                              return 2;
                          }
                      } else {
                          return 3;
                      }
                  } else {
                      return 3;
                  }
              }
          } else {
              if (features[101] < -0.01162715908139944) {
                  if (features[40] < 0.0744686909019947) {
                      if (features[89] < 0.09285181760787964) {
                          if (features[53] < -0.15121114999055862) {
                              return 3;
                          } else {
                              if (features[70] < 0.0720679946243763) {
                                  if (features[51] < 0.04150652885437012) {
                                      if (features[55] < 0.03930492140352726) {
                                          return 2;
                                      } else {
                                          if (features[101] < -0.019678475335240364) {
                                              return 2;
                                          } else {
                                              return 0;
                                          }
                                      }
                                  } else {
                                      if (features[158] < 0.03541656490415335) {
                                          return 0;
                                      } else {
                                          return 2;
                                      }
                                  }
                              } else {
                                  if (features[67] < 0.0845240019261837) {
                                      return 0;
                                  } else {
                                      return 3;
                                  }
                              }
                          }
                      } else {
                          if (features[149] < -0.005764433182775974) {
                              return 2;
                          } else {
                              return 3;
                          }
                      }
                  } else {
                      if (features[190] < 0.238768070936203) {
                          return 3;
                      } else {
                          return 2;
                      }
                  }
              } else {
                  if (features[93] < 0.1081962138414383) {
                      if (features[79] < 0.005137046566233039) {
                          if (features[192] < -0.007849611341953278) {
                              if (features[72] < -0.06145857647061348) {
                                  return 3;
                              } else {
                                  if (features[58] < 0.11499986797571182) {
                                      return 2;
                                  } else {
                                      return 3;
                                  }
                              }
                          } else {
                              if (features[161] < 0.04831313341856003) {
                                  if (features[130] < 0.06989685632288456) {
                                      if (features[170] < 0.0322225634008646) {
                                          if (features[78] < 0.0037075825966894627) {
                                              if (features[169] < 0.028624549508094788) {
                                                  if (features[175] < 0.030764374881982803) {
                                                      return 1;
                                                  } else {
                                                      return 0;
                                                  }
                                              } else {
                                                  if (features[92] < 0.005279465578496456) {
                                                      return 1;
                                                  } else {
                                                      if (features[69] < -0.05373357411008328) {
                                                          return 1;
                                                      } else {
                                                          return 0;
                                                      }
                                                  }
                                              }
                                          } else {
                                              if (features[96] < -0.012807782739400864) {
                                                  return 1;
                                              } else {
                                                  return 0;
                                              }
                                          }
                                      } else {
                                          if (features[43] < -0.0014418736100196838) {
                                              return 3;
                                          } else {
                                              return 0;
                                          }
                                      }
                                  } else {
                                      if (features[120] < 0.21124807745218277) {
                                          return 3;
                                      } else {
                                          return 2;
                                      }
                                  }
                              } else {
                                  if (features[56] < 0.06465374305844307) {
                                      return 2;
                                  } else {
                                      return 3;
                                  }
                              }
                          }
                      } else {
                          if (features[47] < 0.13914447277784348) {
                              if (features[125] < 0.036260951310396194) {
                                  if (features[20] < -0.010114147095009685) {
                                      if (features[97] < -0.11865738732740283) {
                                          return 3;
                                      } else {
                                          return 1;
                                      }
                                  } else {
                                      if (features[0] < 0.13907084614038467) {
                                          if (features[127] < -0.04890890046954155) {
                                              return 2;
                                          } else {
                                              if (features[12] < -0.020538917742669582) {
                                                  return 1;
                                              } else {
                                                  if (features[59] < -0.017291243188083172) {
                                                      return 1;
                                                  } else {
                                                      if (features[186] < 0.10704281739890575) {
                                                          if (features[5] < 0.12570906430482864) {
                                                              if (features[124] < 0.034651316702365875) {
                                                                  if (features[106] < -0.003268931759521365) {
                                                                      if (features[54] < 0.08525758609175682) {
                                                                          return 0;
                                                                      } else {
                                                                          return 1;
                                                                      }
                                                                  } else {
                                                                      return 0;
                                                                  }
                                                              } else {
                                                                  if (features[131] < 0.03364855423569679) {
                                                                      return 1;
                                                                  } else {
                                                                      return 0;
                                                                  }
                                                              }
                                                          } else {
                                                              if (features[77] < 0.07243017293512821) {
                                                                  return 1;
                                                              } else {
                                                                  return 0;
                                                              }
                                                          }
                                                      } else {
                                                          return 2;
                                                      }
                                                  }
                                              }
                                          }
                                      } else {
                                          if (features[119] < -0.009173008787911385) {
                                              return 2;
                                          } else {
                                              return 1;
                                          }
                                      }
                                  }
                              } else {
                                  if (features[7] < 0.06816800311207771) {
                                      return 2;
                                  } else {
                                      return 3;
                                  }
                              }
                          } else {
                              if (features[172] < 0.04641825146973133) {
                                  if (features[74] < 0.4240109771490097) {
                                      if (features[54] < 0.12833968549966812) {
                                          return 0;
                                      } else {
                                          return 1;
                                      }
                                  } else {
                                      return 3;
                                  }
                              } else {
                                  return 3;
                              }
                          }
                      }
                  } else {
                      if (features[110] < 0.03223451413214207) {
                          if (features[158] < 0.053037477657198906) {
                              if (features[171] < -0.06830021180212498) {
                                  return 3;
                              } else {
                                  if (features[121] < 0.03138144314289093) {
                                      if (features[170] < -0.0035228116903454065) {
                                          return 0;
                                      } else {
                                          if (features[108] < 0.03214212879538536) {
                                              if (features[123] < 0.030984208919107914) {
                                                  return 1;
                                              } else {
                                                  if (features[101] < 0.02773045375943184) {
                                                      return 1;
                                                  } else {
                                                      return 0;
                                                  }
                                              }
                                          } else {
                                              return 0;
                                          }
                                      }
                                  } else {
                                      if (features[48] < 0.16692662239074707) {
                                          if (features[131] < 0.025512888096272945) {
                                              return 1;
                                          } else {
                                              return 0;
                                          }
                                      } else {
                                          return 1;
                                      }
                                  }
                              }
                          } else {
                              return 3;
                          }
                      } else {
                          return 3;
                      }
                  }
              }
          }
        }
        

static inline int32_t random_forest_postural_sway_100_predict_tree_4(const float *features, int32_t features_length) {
          if (features[121] < -0.010066729038953781) {
              if (features[51] < 0.08383949100971222) {
                  if (features[28] < 0.10075145587325096) {
                      if (features[80] < 0.06996002420783043) {
                          if (features[77] < -0.1482061967253685) {
                              return 3;
                          } else {
                              if (features[86] < -0.2149161957204342) {
                                  return 3;
                              } else {
                                  if (features[57] < 0.07934682071208954) {
                                      return 2;
                                  } else {
                                      return 0;
                                  }
                              }
                          }
                      } else {
                          return 3;
                      }
                  } else {
                      if (features[59] < -0.011149927973747253) {
                          return 3;
                      } else {
                          if (features[136] < 0.03381602559238672) {
                              return 3;
                          } else {
                              return 2;
                          }
                      }
                  }
              } else {
                  if (features[162] < -0.04372486099600792) {
                      if (features[54] < 0.10580530017614365) {
                          if (features[72] < 0.010313003323972225) {
                              return 3;
                          } else {
                              return 2;
                          }
                      } else {
                          return 3;
                      }
                  } else {
                      if (features[48] < 0.094539325684309) {
                          if (features[75] < 0.10905935987830162) {
                              return 0;
                          } else {
                              return 3;
                          }
                      } else {
                          return 3;
                      }
                  }
              }
          } else {
              if (features[123] < 0.03904029540717602) {
                  if (features[95] < 0.1072947047650814) {
                      if (features[3] < 0.11354989558458328) {
                          if (features[52] < 0.13641434907913208) {
                              if (features[46] < -0.008388654794543982) {
                                  if (features[64] < -0.03051798138767481) {
                                      if (features[105] < -0.02033710153773427) {
                                          return 2;
                                      } else {
                                          if (features[166] < -0.0623198002576828) {
                                              return 2;
                                          } else {
                                              return 1;
                                          }
                                      }
                                  } else {
                                      if (features[40] < -0.050980767235159874) {
                                          if (features[166] < 0.021844140719622374) {
                                              return 1;
                                          } else {
                                              return 3;
                                          }
                                      } else {
                                          if (features[77] < 0.08813183009624481) {
                                              if (features[98] < 0.08653709292411804) {
                                                  return 2;
                                              } else {
                                                  return 1;
                                              }
                                          } else {
                                              return 0;
                                          }
                                      }
                                  }
                              } else {
                                  if (features[142] < -0.030523402616381645) {
                                      return 2;
                                  } else {
                                      if (features[95] < -0.009637003298848867) {
                                          if (features[141] < 0.03728748857975006) {
                                              return 1;
                                          } else {
                                              if (features[137] < 0.015994867542758584) {
                                                  return 2;
                                              } else {
                                                  return 3;
                                              }
                                          }
                                      } else {
                                          if (features[143] < 0.05940340459346771) {
                                              if (features[14] < -0.02222641627304256) {
                                                  return 1;
                                              } else {
                                                  if (features[11] < 0.11433692276477814) {
                                                      if (features[76] < -0.013623856008052826) {
                                                          return 1;
                                                      } else {
                                                          if (features[16] < 0.10004692152142525) {
                                                              if (features[105] < -0.004014539532363415) {
                                                                  if (features[124] < 0.008521050680428743) {
                                                                      return 0;
                                                                  } else {
                                                                      return 2;
                                                                  }
                                                              } else {
                                                                  if (features[14] < 0.09884686395525932) {
                                                                      return 0;
                                                                  } else {
                                                                      if (features[48] < 0.04678545892238617) {
                                                                          return 1;
                                                                      } else {
                                                                          return 0;
                                                                      }
                                                                  }
                                                              }
                                                          } else {
                                                              if (features[14] < 0.09280570596456528) {
                                                                  if (features[125] < 0.019719231873750687) {
                                                                      return 1;
                                                                  } else {
                                                                      return 0;
                                                                  }
                                                              } else {
                                                                  return 0;
                                                              }
                                                          }
                                                      }
                                                  } else {
                                                      if (features[185] < 0.027056392282247543) {
                                                          return 1;
                                                      } else {
                                                          return 0;
                                                      }
                                                  }
                                              }
                                          } else {
                                              if (features[93] < 0.17117256298661232) {
                                                  return 2;
                                              } else {
                                                  return 3;
                                              }
                                          }
                                      }
                                  }
                              }
                          } else {
                              if (features[14] < -0.1380811370909214) {
                                  if (features[177] < 0.03543534688651562) {
                                      if (features[127] < 0.013785997405648232) {
                                          return 3;
                                      } else {
                                          return 1;
                                      }
                                  } else {
                                      return 3;
                                  }
                              } else {
                                  if (features[42] < 0.40195636451244354) {
                                      if (features[48] < 0.139787495136261) {
                                          if (features[156] < -0.022771956399083138) {
                                              return 3;
                                          } else {
                                              return 0;
                                          }
                                      } else {
                                          return 1;
                                      }
                                  } else {
                                      return 3;
                                  }
                              }
                          }
                      } else {
                          if (features[100] < 0.00023640133440494537) {
                              if (features[104] < 0.021678272169083357) {
                                  return 3;
                              } else {
                                  return 0;
                              }
                          } else {
                              if (features[139] < -0.023901043110527098) {
                                  return 3;
                              } else {
                                  if (features[187] < 0.030720820650458336) {
                                      if (features[11] < 0.4297793060541153) {
                                          if (features[92] < 0.08679371699690819) {
                                              if (features[4] < 0.11591078713536263) {
                                                  if (features[83] < 0.036764174699783325) {
                                                      return 1;
                                                  } else {
                                                      return 0;
                                                  }
                                              } else {
                                                  return 1;
                                              }
                                          } else {
                                              if (features[15] < 0.13696857169270515) {
                                                  return 0;
                                              } else {
                                                  return 1;
                                              }
                                          }
                                      } else {
                                          return 3;
                                      }
                                  } else {
                                      if (features[94] < 0.06536274030804634) {
                                          if (features[169] < 0.09111618995666504) {
                                              return 1;
                                          } else {
                                              return 2;
                                          }
                                      } else {
                                          return 0;
                                      }
                                  }
                              }
                          }
                      }
                  } else {
                      if (features[142] < -0.005931079620495439) {
                          return 3;
                      } else {
                          if (features[133] < 0.03494139760732651) {
                              if (features[123] < 0.026527422480285168) {
                                  if (features[121] < 0.033353472128510475) {
                                      return 1;
                                  } else {
                                      return 0;
                                  }
                              } else {
                                  if (features[105] < 0.02958302665501833) {
                                      if (features[164] < 0.011190455872565508) {
                                          return 3;
                                      } else {
                                          return 1;
                                      }
                                  } else {
                                      if (features[6] < 0.12578188255429268) {
                                          return 0;
                                      } else {
                                          return 1;
                                      }
                                  }
                              }
                          } else {
                              if (features[17] < -0.3162366598844528) {
